<?xml version="1.0"?>
<opencv_storage>
<my_svm type_id="opencv-ml-svm">
  <svm_type>C_SVC</svm_type>
  <kernel><type>LINEAR</type></kernel>
  <C>1.</C>
  <term_criteria><epsilon>2.2204460492503131e-16</epsilon>
    <iterations>10</iterations></term_criteria>
  <var_all>3780</var_all>
  <var_count>3780</var_count>
  <class_count>2</class_count>
  <class_labels type_id="opencv-matrix">
    <rows>1</rows>
    <cols>2</cols>
    <dt>i</dt>
    <data>
      -1 1</data></class_labels>
  <sv_total>20</sv_total>
  <support_vectors>
    <_>
      3.36861014e-01 4.21076007e-02 2.52645999e-01 2.52645999e-01
      6.31614029e-01 3.78968000e-01 2.52645999e-01 3.78968000e-01
      8.42152014e-02 5.35054028e-01 1.33763000e-01 4.01289999e-01
      4.01289999e-01 4.45877999e-01 8.91755968e-02 8.91755968e-02
      1.78351000e-01 3.56702000e-01 0. 6.46170974e-02 2.58468002e-01
      2.90776998e-01 8.07712972e-01 3.87701988e-01 1.93850994e-01
      6.46170974e-02 0. 2.16777995e-01 2.16777995e-01 3.90199989e-01
      1.73421994e-01 4.33555007e-01 4.33555007e-01 5.20265996e-01
      1.73421994e-01 2.16777995e-01 5.35054028e-01 1.33763000e-01
      4.01289999e-01 4.01289999e-01 4.45877999e-01 8.91755968e-02
      8.91755968e-02 1.78351000e-01 3.56702000e-01 3.41565013e-01
      2.43974999e-01 2.92769998e-01 3.90359998e-01 4.39155012e-01
      1.95179999e-01 2.92769998e-01 3.90359998e-01 3.41565013e-01
      2.16777995e-01 2.16777995e-01 3.90199989e-01 1.73421994e-01
      4.33555007e-01 4.33555007e-01 5.20265996e-01 1.73421994e-01
      2.16777995e-01 8.63867998e-02 2.59160995e-01 2.15967000e-01
      3.45546991e-01 4.75127995e-01 5.18320978e-01 3.88740987e-01
      2.15967000e-01 2.59160995e-01 3.41565013e-01 2.43974999e-01
      2.92769998e-01 3.90359998e-01 4.39155012e-01 1.95179999e-01
      2.92769998e-01 3.90359998e-01 3.41565013e-01 3.73815000e-01
      4.67269011e-02 1.86908007e-01 3.27089012e-01 2.80362010e-01
      3.27089012e-01 4.20542002e-01 4.20542002e-01 4.20542002e-01
      8.63867998e-02 2.59160995e-01 2.15967000e-01 3.45546991e-01
      4.75127995e-01 5.18320978e-01 3.88740987e-01 2.15967000e-01
      2.59160995e-01 3.72161008e-02 1.48864999e-01 1.48864999e-01
      5.95457971e-01 5.21026015e-01 5.21026015e-01 1.48864999e-01
      1.11648001e-01 1.48864999e-01 3.73815000e-01 4.67269011e-02
      1.86908007e-01 3.27089012e-01 2.80362010e-01 3.27089012e-01
      4.20542002e-01 4.20542002e-01 4.20542002e-01 3.24268997e-01
      1.85295999e-01 1.38971999e-01 3.70593011e-01 4.16916996e-01
      6.02213025e-01 2.31620997e-01 3.24268997e-01 9.26482007e-02
      3.72161008e-02 1.48864999e-01 1.48864999e-01 5.95457971e-01
      5.21026015e-01 5.21026015e-01 1.48864999e-01 1.11648001e-01
      1.48864999e-01 7.90569037e-02 3.95285003e-02 2.76699007e-01
      3.16228002e-01 5.53399026e-01 5.92926979e-01 2.37170994e-01
      1.58114001e-01 2.76699007e-01 3.24268997e-01 1.85295999e-01
      1.38971999e-01 3.70593011e-01 4.16916996e-01 6.02213025e-01
      2.31620997e-01 3.24268997e-01 9.26482007e-02 3.25668991e-01
      3.25668991e-01 1.86096996e-01 2.79145002e-01 1.39572993e-01
      6.04815006e-01 3.25668991e-01 3.25668991e-01 2.79145002e-01
      7.90569037e-02 3.95285003e-02 2.76699007e-01 3.16228002e-01
      5.53399026e-01 5.92926979e-01 2.37170994e-01 1.58114001e-01
      2.76699007e-01 1.62757993e-01 1.62757993e-01 6.91720009e-01
      2.44137004e-01 4.06893998e-01 1.62757993e-01 3.66205007e-01
      2.03446999e-01 2.03446999e-01 3.25668991e-01 3.25668991e-01
      1.86096996e-01 2.79145002e-01 1.39572993e-01 6.04815006e-01
      3.25668991e-01 3.25668991e-01 2.79145002e-01 4.81155992e-01
      2.80674011e-01 2.00481996e-01 1.60384998e-01 6.81638002e-01
      3.20771009e-01 1.20288998e-01 4.00963016e-02 2.00481996e-01
      1.62757993e-01 1.62757993e-01 6.91720009e-01 2.44137004e-01
      4.06893998e-01 1.62757993e-01 3.66205007e-01 2.03446999e-01
      2.03446999e-01 1.39686003e-01 1.04764998e-01 3.49215008e-02
      1.39686003e-01 8.38115990e-01 2.09528998e-01 3.14294010e-01
      2.09528998e-01 2.44451001e-01 4.81155992e-01 2.80674011e-01
      2.00481996e-01 1.60384998e-01 6.81638002e-01 3.20771009e-01
      1.20288998e-01 4.00963016e-02 2.00481996e-01 1.07486002e-01 0.
      7.16573969e-02 1.07486002e-01 7.88232028e-01 5.01601994e-01
      2.14972004e-01 1.79143995e-01 1.43315002e-01 1.39686003e-01
      1.04764998e-01 3.49215008e-02 1.39686003e-01 8.38115990e-01
      2.09528998e-01 3.14294010e-01 2.09528998e-01 2.44451001e-01
      4.14513014e-02 8.29026997e-02 2.48707995e-01 4.14512992e-01
      5.80318987e-01 3.31611007e-01 2.48707995e-01 3.31611007e-01
      3.73062015e-01 1.07486002e-01 0. 7.16573969e-02 1.07486002e-01
      7.88232028e-01 5.01601994e-01 2.14972004e-01 1.79143995e-01
      1.43315002e-01 3.76309007e-01 1.25435993e-01 8.36241990e-02
      4.18121010e-01 5.01744986e-01 3.34497005e-01 5.01744986e-01
      4.18120995e-02 2.09060997e-01 4.14513014e-02 8.29026997e-02
      2.48707995e-01 4.14512992e-01 5.80318987e-01 3.31611007e-01
      2.48707995e-01 3.31611007e-01 3.73062015e-01 7.53777996e-02
      1.13067001e-01 3.39199990e-01 3.76888990e-01 7.53777981e-01
      2.26133004e-01 1.50756001e-01 2.63821989e-01 1.13067001e-01
      3.76309007e-01 1.25435993e-01 8.36241990e-02 4.18121010e-01
      5.01744986e-01 3.34497005e-01 5.01744986e-01 4.18120995e-02
      2.09060997e-01 2.17930004e-01 1.08965002e-01 1.08965002e-01
      1.81608006e-01 8.71719003e-01 2.54251003e-01 1.08965002e-01
      2.17930004e-01 1.08965002e-01 7.53777996e-02 1.13067001e-01
      3.39199990e-01 3.76888990e-01 7.53777981e-01 2.26133004e-01
      1.50756001e-01 2.63821989e-01 1.13067001e-01 3.44622992e-02
      6.89245984e-02 1.03386998e-01 3.10160011e-01 7.23707974e-01
      5.51396012e-01 1.37849003e-01 1.72310993e-01 1.03386998e-01
      2.17930004e-01 1.08965002e-01 1.08965002e-01 1.81608006e-01
      8.71719003e-01 2.54251003e-01 1.08965002e-01 2.17930004e-01
      1.08965002e-01 2.75839001e-01 1.18216999e-01 2.36432999e-01
      1.57621995e-01 4.72865999e-01 7.48705029e-01 1.57621995e-01
      7.88109973e-02 1.18216999e-01 3.44622992e-02 6.89245984e-02
      1.03386998e-01 3.10160011e-01 7.23707974e-01 5.51396012e-01
      1.37849003e-01 1.72310993e-01 1.03386998e-01 7.79680982e-02
      2.72888005e-01 1.16952002e-01 1.94920003e-01 7.40697026e-01
      2.72888005e-01 3.89840990e-01 2.33904004e-01 1.94920003e-01
      2.75839001e-01 1.18216999e-01 2.36432999e-01 1.57621995e-01
      4.72865999e-01 7.48705029e-01 1.57621995e-01 7.88109973e-02
      1.18216999e-01 2.73292989e-01 2.27743998e-01 1.82194993e-01
      7.28779972e-01 2.73292989e-01 2.73292989e-01 2.73292989e-01
      1.82194993e-01 2.27743998e-01 7.79680982e-02 2.72888005e-01
      1.16952002e-01 1.94920003e-01 7.40697026e-01 2.72888005e-01
      3.89840990e-01 2.33904004e-01 1.94920003e-01 1.49070993e-01
      1.86339006e-01 1.86339006e-01 2.23607004e-01 5.96284986e-01
      6.70819998e-01 1.86339006e-01 1.11803003e-01 7.45356008e-02
      2.73292989e-01 2.27743998e-01 1.82194993e-01 7.28779972e-01
      2.73292989e-01 2.73292989e-01 2.73292989e-01 1.82194993e-01
      2.27743998e-01 1.92228004e-01 1.44171000e-01 2.88341999e-01
      4.32511985e-01 5.76682985e-01 3.84454995e-01 3.36398989e-01
      2.40284994e-01 1.44171000e-01 1.49070993e-01 1.86339006e-01
      1.86339006e-01 2.23607004e-01 5.96284986e-01 6.70819998e-01
      1.86339006e-01 1.11803003e-01 7.45356008e-02 1.12115003e-01
      1.49487004e-01 1.86858997e-01 3.73717993e-01 7.10062981e-01
      4.85832989e-01 7.47435018e-02 1.49487004e-01 1.49487004e-01
      1.92228004e-01 1.44171000e-01 2.88341999e-01 4.32511985e-01
      5.76682985e-01 3.84454995e-01 3.36398989e-01 2.40284994e-01
      1.44171000e-01 1.02868997e-01 2.05737993e-01 4.62909997e-01
      6.17213011e-01 2.05737993e-01 3.60040992e-01 2.05737993e-01
      2.05737993e-01 3.08607012e-01 1.12115003e-01 1.49487004e-01
      1.86858997e-01 3.73717993e-01 7.10062981e-01 4.85832989e-01
      7.47435018e-02 1.49487004e-01 1.49487004e-01 3.43629003e-01
      4.29536998e-01 2.57721990e-01 3.43629003e-01 4.29536998e-02
      2.57721990e-01 3.86583000e-01 1.71814993e-01 5.15443981e-01
      1.02868997e-01 2.05737993e-01 4.62909997e-01 6.17213011e-01
      2.05737993e-01 3.60040992e-01 2.05737993e-01 2.05737993e-01
      3.08607012e-01 8.46068978e-01 3.31070006e-01 1.10357001e-01 0.
      3.67855988e-02 3.67855988e-02 1.10357001e-01 1.10357001e-01
      3.67855996e-01 3.43629003e-01 4.29536998e-01 2.57721990e-01
      3.43629003e-01 4.29536998e-02 2.57721990e-01 3.86583000e-01
      1.71814993e-01 5.15443981e-01 8.54421020e-01 1.47313997e-01
      1.76777005e-01 5.89255989e-02 0. 5.89255989e-02 1.17850997e-01
      2.94627994e-02 4.41942006e-01 8.46068978e-01 3.31070006e-01
      1.10357001e-01 0. 3.67855988e-02 3.67855988e-02 1.10357001e-01
      1.10357001e-01 3.67855996e-01 7.17034996e-01 1.07555002e-01 0. 0.
      2.86814004e-01 0. 1.43407002e-01 2.86814004e-01 5.37775993e-01
      8.54421020e-01 1.47313997e-01 1.76777005e-01 5.89255989e-02 0.
      5.89255989e-02 1.17850997e-01 2.94627994e-02 4.41942006e-01
      7.89115012e-01 1.31519005e-01 6.57595992e-02 0. 2.63038009e-01 0.
      0. 9.86393988e-02 5.26076972e-01 0. 6.46170974e-02 2.58468002e-01
      2.90776998e-01 8.07712972e-01 3.87701988e-01 1.93850994e-01
      6.46170974e-02 0. 2.16777995e-01 2.16777995e-01 3.90199989e-01
      1.73421994e-01 4.33555007e-01 4.33555007e-01 5.20265996e-01
      1.73421994e-01 2.16777995e-01 6.95047975e-02 1.04257002e-01
      2.43267000e-01 3.47523987e-01 8.34057987e-01 2.43267000e-01
      1.04257002e-01 1.39009997e-01 1.39009997e-01 7.38214031e-02
      3.69107015e-02 2.95284986e-01 3.32195997e-01 7.38213003e-01
      3.69107008e-01 2.95284986e-01 1.47643000e-01 7.38214031e-02
      2.16777995e-01 2.16777995e-01 3.90199989e-01 1.73421994e-01
      4.33555007e-01 4.33555007e-01 5.20265996e-01 1.73421994e-01
      2.16777995e-01 8.63867998e-02 2.59160995e-01 2.15967000e-01
      3.45546991e-01 4.75127995e-01 5.18320978e-01 3.88740987e-01
      2.15967000e-01 2.59160995e-01 7.38214031e-02 3.69107015e-02
      2.95284986e-01 3.32195997e-01 7.38213003e-01 3.69107008e-01
      2.95284986e-01 1.47643000e-01 7.38214031e-02 2.61115998e-01
      2.61115998e-01 1.30557999e-01 2.61115998e-01 3.04636002e-01
      3.04636002e-01 5.22233009e-01 2.17596993e-01 5.22233009e-01
      8.63867998e-02 2.59160995e-01 2.15967000e-01 3.45546991e-01
      4.75127995e-01 5.18320978e-01 3.88740987e-01 2.15967000e-01
      2.59160995e-01 3.72161008e-02 1.48864999e-01 1.48864999e-01
      5.95457971e-01 5.21026015e-01 5.21026015e-01 1.48864999e-01
      1.11648001e-01 1.48864999e-01 2.61115998e-01 2.61115998e-01
      1.30557999e-01 2.61115998e-01 3.04636002e-01 3.04636002e-01
      5.22233009e-01 2.17596993e-01 5.22233009e-01 1.19617999e-01
      1.59490004e-01 4.38598990e-01 5.58216989e-01 5.58216989e-01
      2.79107988e-01 1.99362993e-01 1.59490004e-01 3.98726016e-02
      3.72161008e-02 1.48864999e-01 1.48864999e-01 5.95457971e-01
      5.21026015e-01 5.21026015e-01 1.48864999e-01 1.11648001e-01
      1.48864999e-01 7.90569037e-02 3.95285003e-02 2.76699007e-01
      3.16228002e-01 5.53399026e-01 5.92926979e-01 2.37170994e-01
      1.58114001e-01 2.76699007e-01 1.19617999e-01 1.59490004e-01
      4.38598990e-01 5.58216989e-01 5.58216989e-01 2.79107988e-01
      1.99362993e-01 1.59490004e-01 3.98726016e-02 3.10575008e-01
      3.10575008e-01 3.10575008e-01 2.66207010e-01 4.43677992e-01
      3.54943007e-01 4.88045990e-01 2.66207010e-01 8.87356997e-02
      7.90569037e-02 3.95285003e-02 2.76699007e-01 3.16228002e-01
      5.53399026e-01 5.92926979e-01 2.37170994e-01 1.58114001e-01
      2.76699007e-01 1.62757993e-01 1.62757993e-01 6.91720009e-01
      2.44137004e-01 4.06893998e-01 1.62757993e-01 3.66205007e-01
      2.03446999e-01 2.03446999e-01 3.10575008e-01 3.10575008e-01
      3.10575008e-01 2.66207010e-01 4.43677992e-01 3.54943007e-01
      4.88045990e-01 2.66207010e-01 8.87356997e-02 3.91030982e-02
      7.82061964e-02 5.08340001e-01 3.91030997e-01 5.86546004e-01
      3.51927996e-01 2.73721993e-01 1.17308997e-01 1.56412005e-01
      1.62757993e-01 1.62757993e-01 6.91720009e-01 2.44137004e-01
      4.06893998e-01 1.62757993e-01 3.66205007e-01 2.03446999e-01
      2.03446999e-01 1.39686003e-01 1.04764998e-01 3.49215008e-02
      1.39686003e-01 8.38115990e-01 2.09528998e-01 3.14294010e-01
      2.09528998e-01 2.44451001e-01 3.91030982e-02 7.82061964e-02
      5.08340001e-01 3.91030997e-01 5.86546004e-01 3.51927996e-01
      2.73721993e-01 1.17308997e-01 1.56412005e-01 0. 1.65520996e-01
      4.55182999e-01 4.55182999e-01 2.06900999e-01 3.31041992e-01
      4.13803011e-01 1.65520996e-01 4.55182999e-01 1.39686003e-01
      1.04764998e-01 3.49215008e-02 1.39686003e-01 8.38115990e-01
      2.09528998e-01 3.14294010e-01 2.09528998e-01 2.44451001e-01
      4.14513014e-02 8.29026997e-02 2.48707995e-01 4.14512992e-01
      5.80318987e-01 3.31611007e-01 2.48707995e-01 3.31611007e-01
      3.73062015e-01 0. 1.65520996e-01 4.55182999e-01 4.55182999e-01
      2.06900999e-01 3.31041992e-01 4.13803011e-01 1.65520996e-01
      4.55182999e-01 3.57598998e-02 3.57598998e-02 5.36399007e-01
      2.50319988e-01 6.79439008e-01 3.57598990e-01 1.78800002e-01
      7.15198964e-02 1.43040001e-01 4.14513014e-02 8.29026997e-02
      2.48707995e-01 4.14512992e-01 5.80318987e-01 3.31611007e-01
      2.48707995e-01 3.31611007e-01 3.73062015e-01 7.53777996e-02
      1.13067001e-01 3.39199990e-01 3.76888990e-01 7.53777981e-01
      2.26133004e-01 1.50756001e-01 2.63821989e-01 1.13067001e-01
      3.57598998e-02 3.57598998e-02 5.36399007e-01 2.50319988e-01
      6.79439008e-01 3.57598990e-01 1.78800002e-01 7.15198964e-02
      1.43040001e-01 8.24085996e-02 2.47226000e-01 4.94450986e-01
      4.12043005e-01 4.12043005e-01 5.35655975e-01 1.64817005e-01
      8.24085996e-02 1.64817005e-01 7.53777996e-02 1.13067001e-01
      3.39199990e-01 3.76888990e-01 7.53777981e-01 2.26133004e-01
      1.50756001e-01 2.63821989e-01 1.13067001e-01 3.44622992e-02
      6.89245984e-02 1.03386998e-01 3.10160011e-01 7.23707974e-01
      5.51396012e-01 1.37849003e-01 1.72310993e-01 1.03386998e-01
      8.24085996e-02 2.47226000e-01 4.94450986e-01 4.12043005e-01
      4.12043005e-01 5.35655975e-01 1.64817005e-01 8.24085996e-02
      1.64817005e-01 7.65839964e-02 1.14876002e-01 1.14876002e-01
      4.21211988e-01 5.36087990e-01 5.36087990e-01 4.21211988e-01
      1.91459998e-01 3.82919982e-02 3.44622992e-02 6.89245984e-02
      1.03386998e-01 3.10160011e-01 7.23707974e-01 5.51396012e-01
      1.37849003e-01 1.72310993e-01 1.03386998e-01 7.79680982e-02
      2.72888005e-01 1.16952002e-01 1.94920003e-01 7.40697026e-01
      2.72888005e-01 3.89840990e-01 2.33904004e-01 1.94920003e-01
      7.65839964e-02 1.14876002e-01 1.14876002e-01 4.21211988e-01
      5.36087990e-01 5.36087990e-01 4.21211988e-01 1.91459998e-01
      3.82919982e-02 3.62737998e-02 1.08820997e-01 1.08820997e-01
      3.99011999e-01 7.25476027e-01 3.62738013e-01 3.62738013e-01
      1.45095006e-01 7.25475997e-02 7.79680982e-02 2.72888005e-01
      1.16952002e-01 1.94920003e-01 7.40697026e-01 2.72888005e-01
      3.89840990e-01 2.33904004e-01 1.94920003e-01 1.49070993e-01
      1.86339006e-01 1.86339006e-01 2.23607004e-01 5.96284986e-01
      6.70819998e-01 1.86339006e-01 1.11803003e-01 7.45356008e-02
      3.62737998e-02 1.08820997e-01 1.08820997e-01 3.99011999e-01
      7.25476027e-01 3.62738013e-01 3.62738013e-01 1.45095006e-01
      7.25475997e-02 2.28085995e-01 1.52057007e-01 1.14042997e-01
      2.28085995e-01 7.98300028e-01 1.52057007e-01 1.90071002e-01
      2.66099989e-01 3.04114014e-01 1.49070993e-01 1.86339006e-01
      1.86339006e-01 2.23607004e-01 5.96284986e-01 6.70819998e-01
      1.86339006e-01 1.11803003e-01 7.45356008e-02 1.12115003e-01
      1.49487004e-01 1.86858997e-01 3.73717993e-01 7.10062981e-01
      4.85832989e-01 7.47435018e-02 1.49487004e-01 1.49487004e-01
      2.28085995e-01 1.52057007e-01 1.14042997e-01 2.28085995e-01
      7.98300028e-01 1.52057007e-01 1.90071002e-01 2.66099989e-01
      3.04114014e-01 3.36264998e-01 3.36264998e-01 1.68133005e-01
      3.36264998e-01 5.88464022e-01 4.62363988e-01 1.68133005e-01
      1.68133005e-01 1.26099005e-01 1.12115003e-01 1.49487004e-01
      1.86858997e-01 3.73717993e-01 7.10062981e-01 4.85832989e-01
      7.47435018e-02 1.49487004e-01 1.49487004e-01 3.43629003e-01
      4.29536998e-01 2.57721990e-01 3.43629003e-01 4.29536998e-02
      2.57721990e-01 3.86583000e-01 1.71814993e-01 5.15443981e-01
      3.36264998e-01 3.36264998e-01 1.68133005e-01 3.36264998e-01
      5.88464022e-01 4.62363988e-01 1.68133005e-01 1.68133005e-01
      1.26099005e-01 5.75223982e-01 2.68438011e-01 1.91741005e-01
      1.53393000e-01 1.15045004e-01 1.15045004e-01 1.15045004e-01
      2.68438011e-01 6.51920021e-01 3.43629003e-01 4.29536998e-01
      2.57721990e-01 3.43629003e-01 4.29536998e-02 2.57721990e-01
      3.86583000e-01 1.71814993e-01 5.15443981e-01 8.54421020e-01
      1.47313997e-01 1.76777005e-01 5.89255989e-02 0. 5.89255989e-02
      1.17850997e-01 2.94627994e-02 4.41942006e-01 5.75223982e-01
      2.68438011e-01 1.91741005e-01 1.53393000e-01 1.15045004e-01
      1.15045004e-01 1.15045004e-01 2.68438011e-01 6.51920021e-01
      7.73573995e-01 1.68167993e-01 6.72672987e-02 0. 3.36336009e-02
      1.34535000e-01 6.72672987e-02 1.34535000e-01 5.71771979e-01
      8.54421020e-01 1.47313997e-01 1.76777005e-01 5.89255989e-02 0.
      5.89255989e-02 1.17850997e-01 2.94627994e-02 4.41942006e-01
      7.89115012e-01 1.31519005e-01 6.57595992e-02 0. 2.63038009e-01 0.
      0. 9.86393988e-02 5.26076972e-01 7.73573995e-01 1.68167993e-01
      6.72672987e-02 0. 3.36336009e-02 1.34535000e-01 6.72672987e-02
      1.34535000e-01 5.71771979e-01 4.22371000e-01 1.31990999e-01 0. 0.
      2.11184993e-01 0. 0. 2.63982005e-02 8.71140003e-01 6.95047975e-02
      1.04257002e-01 2.43267000e-01 3.47523987e-01 8.34057987e-01
      2.43267000e-01 1.04257002e-01 1.39009997e-01 1.39009997e-01
      7.38214031e-02 3.69107015e-02 2.95284986e-01 3.32195997e-01
      7.38213003e-01 3.69107008e-01 2.95284986e-01 1.47643000e-01
      7.38214031e-02 6.38225973e-02 3.19112986e-02 2.55290002e-01
      1.91468000e-01 8.93516004e-01 1.91468000e-01 1.27645001e-01
      1.59556001e-01 1.27645001e-01 2.70500988e-01 3.15584004e-01
      2.70500988e-01 4.95918006e-01 2.25417003e-01 4.50834990e-01
      2.70500988e-01 2.25417003e-01 3.60668004e-01 7.38214031e-02
      3.69107015e-02 2.95284986e-01 3.32195997e-01 7.38213003e-01
      3.69107008e-01 2.95284986e-01 1.47643000e-01 7.38214031e-02
      2.61115998e-01 2.61115998e-01 1.30557999e-01 2.61115998e-01
      3.04636002e-01 3.04636002e-01 5.22233009e-01 2.17596993e-01
      5.22233009e-01 2.70500988e-01 3.15584004e-01 2.70500988e-01
      4.95918006e-01 2.25417003e-01 4.50834990e-01 2.70500988e-01
      2.25417003e-01 3.60668004e-01 3.84614989e-02 1.92307994e-01
      3.84615004e-01 6.53846025e-01 5.00000000e-01 2.69230992e-01
      1.15385003e-01 1.92307994e-01 1.15385003e-01 2.61115998e-01
      2.61115998e-01 1.30557999e-01 2.61115998e-01 3.04636002e-01
      3.04636002e-01 5.22233009e-01 2.17596993e-01 5.22233009e-01
      1.19617999e-01 1.59490004e-01 4.38598990e-01 5.58216989e-01
      5.58216989e-01 2.79107988e-01 1.99362993e-01 1.59490004e-01
      3.98726016e-02 3.84614989e-02 1.92307994e-01 3.84615004e-01
      6.53846025e-01 5.00000000e-01 2.69230992e-01 1.15385003e-01
      1.92307994e-01 1.15385003e-01 1.58114001e-01 7.90569037e-02
      3.95285010e-01 3.55756015e-01 6.71984017e-01 3.55756015e-01
      2.76699007e-01 7.90569037e-02 1.58114001e-01 1.19617999e-01
      1.59490004e-01 4.38598990e-01 5.58216989e-01 5.58216989e-01
      2.79107988e-01 1.99362993e-01 1.59490004e-01 3.98726016e-02
      3.10575008e-01 3.10575008e-01 3.10575008e-01 2.66207010e-01
      4.43677992e-01 3.54943007e-01 4.88045990e-01 2.66207010e-01
      8.87356997e-02 1.58114001e-01 7.90569037e-02 3.95285010e-01
      3.55756015e-01 6.71984017e-01 3.55756015e-01 2.76699007e-01
      7.90569037e-02 1.58114001e-01 1.16072997e-01 7.73822963e-02
      1.16072997e-01 3.86911988e-01 6.96440995e-01 3.86911988e-01
      2.70837992e-01 3.09529006e-01 1.16072997e-01 3.10575008e-01
      3.10575008e-01 3.10575008e-01 2.66207010e-01 4.43677992e-01
      3.54943007e-01 4.88045990e-01 2.66207010e-01 8.87356997e-02
      3.91030982e-02 7.82061964e-02 5.08340001e-01 3.91030997e-01
      5.86546004e-01 3.51927996e-01 2.73721993e-01 1.17308997e-01
      1.56412005e-01 1.16072997e-01 7.73822963e-02 1.16072997e-01
      3.86911988e-01 6.96440995e-01 3.86911988e-01 2.70837992e-01
      3.09529006e-01 1.16072997e-01 6.03022985e-02 3.01511008e-02
      9.04534012e-02 7.53777981e-01 5.12569010e-01 3.91965002e-01
      3.01511008e-02 3.01511008e-02 3.01511008e-02 3.91030982e-02
      7.82061964e-02 5.08340001e-01 3.91030997e-01 5.86546004e-01
      3.51927996e-01 2.73721993e-01 1.17308997e-01 1.56412005e-01 0.
      1.65520996e-01 4.55182999e-01 4.55182999e-01 2.06900999e-01
      3.31041992e-01 4.13803011e-01 1.65520996e-01 4.55182999e-01
      6.03022985e-02 3.01511008e-02 9.04534012e-02 7.53777981e-01
      5.12569010e-01 3.91965002e-01 3.01511008e-02 3.01511008e-02
      3.01511008e-02 4.38250989e-01 1.59364000e-01 1.19523004e-01
      1.59364000e-01 6.77295983e-01 3.18728000e-01 1.99204996e-01
      3.58568996e-01 1.19523004e-01 0. 1.65520996e-01 4.55182999e-01
      4.55182999e-01 2.06900999e-01 3.31041992e-01 4.13803011e-01
      1.65520996e-01 4.55182999e-01 3.57598998e-02 3.57598998e-02
      5.36399007e-01 2.50319988e-01 6.79439008e-01 3.57598990e-01
      1.78800002e-01 7.15198964e-02 1.43040001e-01 4.38250989e-01
      1.59364000e-01 1.19523004e-01 1.59364000e-01 6.77295983e-01
      3.18728000e-01 1.99204996e-01 3.58568996e-01 1.19523004e-01
      9.07011032e-02 6.04673997e-02 9.07011032e-02 1.51169002e-01
      3.32571000e-01 8.76776993e-01 2.72103012e-01 6.04673997e-02 0.
      3.57598998e-02 3.57598998e-02 5.36399007e-01 2.50319988e-01
      6.79439008e-01 3.57598990e-01 1.78800002e-01 7.15198964e-02
      1.43040001e-01 8.24085996e-02 2.47226000e-01 4.94450986e-01
      4.12043005e-01 4.12043005e-01 5.35655975e-01 1.64817005e-01
      8.24085996e-02 1.64817005e-01 9.07011032e-02 6.04673997e-02
      9.07011032e-02 1.51169002e-01 3.32571000e-01 8.76776993e-01
      2.72103012e-01 6.04673997e-02 0. 1.60127997e-01 1.60127997e-01
      4.80383992e-01 6.40513003e-01 3.60287994e-01 2.00159997e-01
      2.80223995e-01 2.40191996e-01 4.00319993e-02 8.24085996e-02
      2.47226000e-01 4.94450986e-01 4.12043005e-01 4.12043005e-01
      5.35655975e-01 1.64817005e-01 8.24085996e-02 1.64817005e-01
      7.65839964e-02 1.14876002e-01 1.14876002e-01 4.21211988e-01
      5.36087990e-01 5.36087990e-01 4.21211988e-01 1.91459998e-01
      3.82919982e-02 1.60127997e-01 1.60127997e-01 4.80383992e-01
      6.40513003e-01 3.60287994e-01 2.00159997e-01 2.80223995e-01
      2.40191996e-01 4.00319993e-02 1.47844002e-01 3.69611010e-02 0.
      3.32650006e-01 6.65298998e-01 4.43533003e-01 3.32650006e-01
      3.32650006e-01 7.39220977e-02 7.65839964e-02 1.14876002e-01
      1.14876002e-01 4.21211988e-01 5.36087990e-01 5.36087990e-01
      4.21211988e-01 1.91459998e-01 3.82919982e-02 3.62737998e-02
      1.08820997e-01 1.08820997e-01 3.99011999e-01 7.25476027e-01
      3.62738013e-01 3.62738013e-01 1.45095006e-01 7.25475997e-02
      1.47844002e-01 3.69611010e-02 0. 3.32650006e-01 6.65298998e-01
      4.43533003e-01 3.32650006e-01 3.32650006e-01 7.39220977e-02
      2.75449995e-02 1.37724996e-01 8.26349035e-02 2.20359996e-01
      9.36528981e-01 1.37724996e-01 1.65270001e-01 2.75449995e-02
      2.75449995e-02 3.62737998e-02 1.08820997e-01 1.08820997e-01
      3.99011999e-01 7.25476027e-01 3.62738013e-01 3.62738013e-01
      1.45095006e-01 7.25475997e-02 2.28085995e-01 1.52057007e-01
      1.14042997e-01 2.28085995e-01 7.98300028e-01 1.52057007e-01
      1.90071002e-01 2.66099989e-01 3.04114014e-01 2.75449995e-02
      1.37724996e-01 8.26349035e-02 2.20359996e-01 9.36528981e-01
      1.37724996e-01 1.65270001e-01 2.75449995e-02 2.75449995e-02
      1.12588003e-01 1.87647000e-01 7.50586987e-02 7.50586987e-02
      7.13056982e-01 4.87881005e-01 3.00235003e-01 1.87647000e-01
      2.62704998e-01 2.28085995e-01 1.52057007e-01 1.14042997e-01
      2.28085995e-01 7.98300028e-01 1.52057007e-01 1.90071002e-01
      2.66099989e-01 3.04114014e-01 3.36264998e-01 3.36264998e-01
      1.68133005e-01 3.36264998e-01 5.88464022e-01 4.62363988e-01
      1.68133005e-01 1.68133005e-01 1.26099005e-01 1.12588003e-01
      1.87647000e-01 7.50586987e-02 7.50586987e-02 7.13056982e-01
      4.87881005e-01 3.00235003e-01 1.87647000e-01 2.62704998e-01
      8.93533975e-02 2.68059999e-01 3.12736988e-01 4.46767002e-01
      2.23383993e-01 3.12736988e-01 4.91443992e-01 4.02090013e-01
      2.68059999e-01 3.36264998e-01 3.36264998e-01 1.68133005e-01
      3.36264998e-01 5.88464022e-01 4.62363988e-01 1.68133005e-01
      1.68133005e-01 1.26099005e-01 5.75223982e-01 2.68438011e-01
      1.91741005e-01 1.53393000e-01 1.15045004e-01 1.15045004e-01
      1.15045004e-01 2.68438011e-01 6.51920021e-01 8.93533975e-02
      2.68059999e-01 3.12736988e-01 4.46767002e-01 2.23383993e-01
      3.12736988e-01 4.91443992e-01 4.02090013e-01 2.68059999e-01
      4.25628006e-01 5.53317010e-01 1.70250997e-01 2.12814003e-01
      1.27688006e-01 1.70250997e-01 2.55376995e-01 4.25628006e-01
      3.83064985e-01 5.75223982e-01 2.68438011e-01 1.91741005e-01
      1.53393000e-01 1.15045004e-01 1.15045004e-01 1.15045004e-01
      2.68438011e-01 6.51920021e-01 7.73573995e-01 1.68167993e-01
      6.72672987e-02 0. 3.36336009e-02 1.34535000e-01 6.72672987e-02
      1.34535000e-01 5.71771979e-01 4.25628006e-01 5.53317010e-01
      1.70250997e-01 2.12814003e-01 1.27688006e-01 1.70250997e-01
      2.55376995e-01 4.25628006e-01 3.83064985e-01 5.88391006e-01 0. 0.
      2.55821999e-02 1.53493002e-01 0. 2.55821999e-02 0. 7.93048978e-01
      7.73573995e-01 1.68167993e-01 6.72672987e-02 0. 3.36336009e-02
      1.34535000e-01 6.72672987e-02 1.34535000e-01 5.71771979e-01
      4.22371000e-01 1.31990999e-01 0. 0. 2.11184993e-01 0. 0.
      2.63982005e-02 8.71140003e-01 5.88391006e-01 0. 0. 2.55821999e-02
      1.53493002e-01 0. 2.55821999e-02 0. 7.93048978e-01 5.67227006e-01
      1.19415998e-01 2.98541002e-02 0. 2.38832995e-01 0. 0.
      5.97080998e-02 7.76206017e-01 6.38225973e-02 3.19112986e-02
      2.55290002e-01 1.91468000e-01 8.93516004e-01 1.91468000e-01
      1.27645001e-01 1.59556001e-01 1.27645001e-01 2.70500988e-01
      3.15584004e-01 2.70500988e-01 4.95918006e-01 2.25417003e-01
      4.50834990e-01 2.70500988e-01 2.25417003e-01 3.60668004e-01
      6.50945008e-02 2.27831006e-01 2.27831006e-01 3.58020008e-01
      8.46228004e-01 1.95282996e-01 6.50945008e-02 3.25471982e-02
      6.50945008e-02 3.13677013e-01 4.48110998e-01 3.58489007e-01
      4.48110998e-01 2.24055007e-01 1.79243997e-01 1.79243997e-01
      3.58489007e-01 3.58489007e-01 2.70500988e-01 3.15584004e-01
      2.70500988e-01 4.95918006e-01 2.25417003e-01 4.50834990e-01
      2.70500988e-01 2.25417003e-01 3.60668004e-01 3.84614989e-02
      1.92307994e-01 3.84615004e-01 6.53846025e-01 5.00000000e-01
      2.69230992e-01 1.15385003e-01 1.92307994e-01 1.15385003e-01
      3.13677013e-01 4.48110998e-01 3.58489007e-01 4.48110998e-01
      2.24055007e-01 1.79243997e-01 1.79243997e-01 3.58489007e-01
      3.58489007e-01 3.68604995e-02 1.47441998e-01 1.10581003e-01
      3.68604988e-01 3.31743985e-01 5.89767992e-01 5.89767992e-01
      1.47441998e-01 3.68604995e-02 3.84614989e-02 1.92307994e-01
      3.84615004e-01 6.53846025e-01 5.00000000e-01 2.69230992e-01
      1.15385003e-01 1.92307994e-01 1.15385003e-01 1.58114001e-01
      7.90569037e-02 3.95285010e-01 3.55756015e-01 6.71984017e-01
      3.55756015e-01 2.76699007e-01 7.90569037e-02 1.58114001e-01
      3.68604995e-02 1.47441998e-01 1.10581003e-01 3.68604988e-01
      3.31743985e-01 5.89767992e-01 5.89767992e-01 1.47441998e-01
      3.68604995e-02 1.78118005e-01 1.06871001e-01 1.78118005e-01
      3.20612013e-01 7.48094022e-01 4.63106006e-01 2.13741004e-01
      3.56234983e-02 3.56234983e-02 1.58114001e-01 7.90569037e-02
      3.95285010e-01 3.55756015e-01 6.71984017e-01 3.55756015e-01
      2.76699007e-01 7.90569037e-02 1.58114001e-01 1.16072997e-01
      7.73822963e-02 1.16072997e-01 3.86911988e-01 6.96440995e-01
      3.86911988e-01 2.70837992e-01 3.09529006e-01 1.16072997e-01
      1.78118005e-01 1.06871001e-01 1.78118005e-01 3.20612013e-01
      7.48094022e-01 4.63106006e-01 2.13741004e-01 3.56234983e-02
      3.56234983e-02 1.14373997e-01 2.28747994e-01 7.62493014e-02
      2.66871989e-01 6.48118973e-01 4.57495987e-01 4.19371009e-01 0.
      2.28747994e-01 1.16072997e-01 7.73822963e-02 1.16072997e-01
      3.86911988e-01 6.96440995e-01 3.86911988e-01 2.70837992e-01
      3.09529006e-01 1.16072997e-01 6.03022985e-02 3.01511008e-02
      9.04534012e-02 7.53777981e-01 5.12569010e-01 3.91965002e-01
      3.01511008e-02 3.01511008e-02 3.01511008e-02 1.14373997e-01
      2.28747994e-01 7.62493014e-02 2.66871989e-01 6.48118973e-01
      4.57495987e-01 4.19371009e-01 0. 2.28747994e-01 0. 0.
      5.11643998e-02 3.83733004e-01 8.95377994e-01 2.04658002e-01
      7.67467022e-02 0. 2.55821999e-02 6.03022985e-02 3.01511008e-02
      9.04534012e-02 7.53777981e-01 5.12569010e-01 3.91965002e-01
      3.01511008e-02 3.01511008e-02 3.01511008e-02 4.38250989e-01
      1.59364000e-01 1.19523004e-01 1.59364000e-01 6.77295983e-01
      3.18728000e-01 1.99204996e-01 3.58568996e-01 1.19523004e-01 0. 0.
      5.11643998e-02 3.83733004e-01 8.95377994e-01 2.04658002e-01
      7.67467022e-02 0. 2.55821999e-02 3.26599002e-01 1.63298994e-01
      1.22474000e-01 3.67422998e-01 3.67422998e-01 6.53196990e-01
      3.26599002e-01 8.16496983e-02 2.04124004e-01 4.38250989e-01
      1.59364000e-01 1.19523004e-01 1.59364000e-01 6.77295983e-01
      3.18728000e-01 1.99204996e-01 3.58568996e-01 1.19523004e-01
      9.07011032e-02 6.04673997e-02 9.07011032e-02 1.51169002e-01
      3.32571000e-01 8.76776993e-01 2.72103012e-01 6.04673997e-02 0.
      3.26599002e-01 1.63298994e-01 1.22474000e-01 3.67422998e-01
      3.67422998e-01 6.53196990e-01 3.26599002e-01 8.16496983e-02
      2.04124004e-01 4.79615986e-01 2.39807993e-01 3.99679989e-01
      2.39807993e-01 6.39488995e-01 1.99839994e-01 7.99361020e-02
      1.59871995e-01 1.19903997e-01 9.07011032e-02 6.04673997e-02
      9.07011032e-02 1.51169002e-01 3.32571000e-01 8.76776993e-01
      2.72103012e-01 6.04673997e-02 0. 1.60127997e-01 1.60127997e-01
      4.80383992e-01 6.40513003e-01 3.60287994e-01 2.00159997e-01
      2.80223995e-01 2.40191996e-01 4.00319993e-02 4.79615986e-01
      2.39807993e-01 3.99679989e-01 2.39807993e-01 6.39488995e-01
      1.99839994e-01 7.99361020e-02 1.59871995e-01 1.19903997e-01
      3.10086999e-02 1.24035001e-01 1.55043006e-01 1.24035001e-01
      8.06226015e-01 5.27148008e-01 9.30259973e-02 6.20173998e-02
      6.20173998e-02 1.60127997e-01 1.60127997e-01 4.80383992e-01
      6.40513003e-01 3.60287994e-01 2.00159997e-01 2.80223995e-01
      2.40191996e-01 4.00319993e-02 1.47844002e-01 3.69611010e-02 0.
      3.32650006e-01 6.65298998e-01 4.43533003e-01 3.32650006e-01
      3.32650006e-01 7.39220977e-02 3.10086999e-02 1.24035001e-01
      1.55043006e-01 1.24035001e-01 8.06226015e-01 5.27148008e-01
      9.30259973e-02 6.20173998e-02 6.20173998e-02 1.42565995e-01
      5.70265986e-02 1.14053003e-01 1.99592993e-01 9.40939009e-01
      1.42565995e-01 5.70265986e-02 8.55398998e-02 8.55398998e-02
      1.47844002e-01 3.69611010e-02 0. 3.32650006e-01 6.65298998e-01
      4.43533003e-01 3.32650006e-01 3.32650006e-01 7.39220977e-02
      2.75449995e-02 1.37724996e-01 8.26349035e-02 2.20359996e-01
      9.36528981e-01 1.37724996e-01 1.65270001e-01 2.75449995e-02
      2.75449995e-02 1.42565995e-01 5.70265986e-02 1.14053003e-01
      1.99592993e-01 9.40939009e-01 1.42565995e-01 5.70265986e-02
      8.55398998e-02 8.55398998e-02 5.92348985e-02 1.18469998e-01
      5.92348985e-02 2.07322001e-01 9.18141007e-01 2.36939996e-01
      1.48086995e-01 1.18469998e-01 2.96174008e-02 2.75449995e-02
      1.37724996e-01 8.26349035e-02 2.20359996e-01 9.36528981e-01
      1.37724996e-01 1.65270001e-01 2.75449995e-02 2.75449995e-02
      1.12588003e-01 1.87647000e-01 7.50586987e-02 7.50586987e-02
      7.13056982e-01 4.87881005e-01 3.00235003e-01 1.87647000e-01
      2.62704998e-01 5.92348985e-02 1.18469998e-01 5.92348985e-02
      2.07322001e-01 9.18141007e-01 2.36939996e-01 1.48086995e-01
      1.18469998e-01 2.96174008e-02 4.63241003e-02 6.94862008e-02
      6.94862008e-02 6.94862008e-02 9.72805977e-01 1.85295999e-01
      4.63241003e-02 0. 2.31621005e-02 1.12588003e-01 1.87647000e-01
      7.50586987e-02 7.50586987e-02 7.13056982e-01 4.87881005e-01
      3.00235003e-01 1.87647000e-01 2.62704998e-01 8.93533975e-02
      2.68059999e-01 3.12736988e-01 4.46767002e-01 2.23383993e-01
      3.12736988e-01 4.91443992e-01 4.02090013e-01 2.68059999e-01
      4.63241003e-02 6.94862008e-02 6.94862008e-02 6.94862008e-02
      9.72805977e-01 1.85295999e-01 4.63241003e-02 0. 2.31621005e-02
      1.24756999e-01 1.55946001e-01 1.55946001e-01 1.24756999e-01
      8.73296022e-01 3.74269992e-01 3.11891008e-02 1.24756999e-01
      3.11891008e-02 8.93533975e-02 2.68059999e-01 3.12736988e-01
      4.46767002e-01 2.23383993e-01 3.12736988e-01 4.91443992e-01
      4.02090013e-01 2.68059999e-01 4.25628006e-01 5.53317010e-01
      1.70250997e-01 2.12814003e-01 1.27688006e-01 1.70250997e-01
      2.55376995e-01 4.25628006e-01 3.83064985e-01 1.24756999e-01
      1.55946001e-01 1.55946001e-01 1.24756999e-01 8.73296022e-01
      3.74269992e-01 3.11891008e-02 1.24756999e-01 3.11891008e-02
      6.88427985e-02 1.72106996e-01 1.72106996e-01 4.13056999e-01
      7.22850025e-01 4.81900007e-01 3.44213992e-02 6.88427985e-02
      6.88427985e-02 4.25628006e-01 5.53317010e-01 1.70250997e-01
      2.12814003e-01 1.27688006e-01 1.70250997e-01 2.55376995e-01
      4.25628006e-01 3.83064985e-01 5.88391006e-01 0. 0. 2.55821999e-02
      1.53493002e-01 0. 2.55821999e-02 0. 7.93048978e-01 6.88427985e-02
      1.72106996e-01 1.72106996e-01 4.13056999e-01 7.22850025e-01
      4.81900007e-01 3.44213992e-02 6.88427985e-02 6.88427985e-02
      6.63738012e-01 2.34261006e-01 3.90433997e-01 3.90433997e-01 0.
      1.56174004e-01 1.95216998e-01 1.17129996e-01 3.51390988e-01
      5.88391006e-01 0. 0. 2.55821999e-02 1.53493002e-01 0.
      2.55821999e-02 0. 7.93048978e-01 5.67227006e-01 1.19415998e-01
      2.98541002e-02 0. 2.38832995e-01 0. 0. 5.97080998e-02
      7.76206017e-01 6.63738012e-01 2.34261006e-01 3.90433997e-01
      3.90433997e-01 0. 1.56174004e-01 1.95216998e-01 1.17129996e-01
      3.51390988e-01 1.68133005e-01 2.10166007e-01 5.04397988e-01
      4.20331001e-01 5.88464022e-01 8.40663016e-02 1.68133005e-01
      1.68133005e-01 2.94232011e-01 6.50945008e-02 2.27831006e-01
      2.27831006e-01 3.58020008e-01 8.46228004e-01 1.95282996e-01
      6.50945008e-02 3.25471982e-02 6.50945008e-02 3.13677013e-01
      4.48110998e-01 3.58489007e-01 4.48110998e-01 2.24055007e-01
      1.79243997e-01 1.79243997e-01 3.58489007e-01 3.58489007e-01
      2.39426002e-01 7.98086971e-02 7.98086971e-02 3.99042994e-01
      6.38469994e-01 2.79329985e-01 4.38948005e-01 2.79329985e-01
      1.19713001e-01 2.05498993e-01 3.28797996e-01 2.46598005e-01
      2.87698001e-01 6.57595992e-01 1.64398998e-01 4.10997011e-02
      3.69897991e-01 3.28797996e-01 3.13677013e-01 4.48110998e-01
      3.58489007e-01 4.48110998e-01 2.24055007e-01 1.79243997e-01
      1.79243997e-01 3.58489007e-01 3.58489007e-01 3.68604995e-02
      1.47441998e-01 1.10581003e-01 3.68604988e-01 3.31743985e-01
      5.89767992e-01 5.89767992e-01 1.47441998e-01 3.68604995e-02
      2.05498993e-01 3.28797996e-01 2.46598005e-01 2.87698001e-01
      6.57595992e-01 1.64398998e-01 4.10997011e-02 3.69897991e-01
      3.28797996e-01 1.16952002e-01 7.79680982e-02 1.16952002e-01
      5.84761024e-01 3.89840990e-01 5.84761024e-01 1.94920003e-01
      1.94920003e-01 2.33904004e-01 3.68604995e-02 1.47441998e-01
      1.10581003e-01 3.68604988e-01 3.31743985e-01 5.89767992e-01
      5.89767992e-01 1.47441998e-01 3.68604995e-02 1.78118005e-01
      1.06871001e-01 1.78118005e-01 3.20612013e-01 7.48094022e-01
      4.63106006e-01 2.13741004e-01 3.56234983e-02 3.56234983e-02
      1.16952002e-01 7.79680982e-02 1.16952002e-01 5.84761024e-01
      3.89840990e-01 5.84761024e-01 1.94920003e-01 1.94920003e-01
      2.33904004e-01 1.43592000e-01 1.43592000e-01 3.94876987e-01
      1.79490000e-01 6.46161973e-01 5.74366987e-01 1.43592000e-01
      3.58978994e-02 3.58978994e-02 1.78118005e-01 1.06871001e-01
      1.78118005e-01 3.20612013e-01 7.48094022e-01 4.63106006e-01
      2.13741004e-01 3.56234983e-02 3.56234983e-02 1.14373997e-01
      2.28747994e-01 7.62493014e-02 2.66871989e-01 6.48118973e-01
      4.57495987e-01 4.19371009e-01 0. 2.28747994e-01 1.43592000e-01
      1.43592000e-01 3.94876987e-01 1.79490000e-01 6.46161973e-01
      5.74366987e-01 1.43592000e-01 3.58978994e-02 3.58978994e-02
      1.57378003e-01 2.75411010e-01 1.96722001e-01 4.32788998e-01
      7.08200991e-01 2.75411010e-01 2.75411010e-01 1.18032999e-01
      7.86888972e-02 1.14373997e-01 2.28747994e-01 7.62493014e-02
      2.66871989e-01 6.48118973e-01 4.57495987e-01 4.19371009e-01 0.
      2.28747994e-01 0. 0. 5.11643998e-02 3.83733004e-01 8.95377994e-01
      2.04658002e-01 7.67467022e-02 0. 2.55821999e-02 1.57378003e-01
      2.75411010e-01 1.96722001e-01 4.32788998e-01 7.08200991e-01
      2.75411010e-01 2.75411010e-01 1.18032999e-01 7.86888972e-02
      3.42192985e-02 1.36877000e-01 1.71095997e-01 3.07974011e-01
      7.87043989e-01 4.44851011e-01 1.71095997e-01 6.84385970e-02
      6.84385970e-02 0. 0. 5.11643998e-02 3.83733004e-01 8.95377994e-01
      2.04658002e-01 7.67467022e-02 0. 2.55821999e-02 3.26599002e-01
      1.63298994e-01 1.22474000e-01 3.67422998e-01 3.67422998e-01
      6.53196990e-01 3.26599002e-01 8.16496983e-02 2.04124004e-01
      3.42192985e-02 1.36877000e-01 1.71095997e-01 3.07974011e-01
      7.87043989e-01 4.44851011e-01 1.71095997e-01 6.84385970e-02
      6.84385970e-02 8.59073997e-02 4.72490013e-01 2.14768007e-01
      3.86583000e-01 2.14768007e-01 4.72490013e-01 3.00675988e-01
      4.29536998e-01 1.71814993e-01 3.26599002e-01 1.63298994e-01
      1.22474000e-01 3.67422998e-01 3.67422998e-01 6.53196990e-01
      3.26599002e-01 8.16496983e-02 2.04124004e-01 4.79615986e-01
      2.39807993e-01 3.99679989e-01 2.39807993e-01 6.39488995e-01
      1.99839994e-01 7.99361020e-02 1.59871995e-01 1.19903997e-01
      8.59073997e-02 4.72490013e-01 2.14768007e-01 3.86583000e-01
      2.14768007e-01 4.72490013e-01 3.00675988e-01 4.29536998e-01
      1.71814993e-01 1.87120005e-01 1.87120005e-01 0. 3.74240994e-01
      5.61361015e-01 6.36209011e-01 1.49696007e-01 1.87120005e-01
      1.12272002e-01 4.79615986e-01 2.39807993e-01 3.99679989e-01
      2.39807993e-01 6.39488995e-01 1.99839994e-01 7.99361020e-02
      1.59871995e-01 1.19903997e-01 3.10086999e-02 1.24035001e-01
      1.55043006e-01 1.24035001e-01 8.06226015e-01 5.27148008e-01
      9.30259973e-02 6.20173998e-02 6.20173998e-02 1.87120005e-01
      1.87120005e-01 0. 3.74240994e-01 5.61361015e-01 6.36209011e-01
      1.49696007e-01 1.87120005e-01 1.12272002e-01 7.65839964e-02
      7.65839964e-02 3.06335986e-01 4.59504008e-01 5.36087990e-01
      5.36087990e-01 3.06335986e-01 1.14876002e-01 3.82919982e-02
      3.10086999e-02 1.24035001e-01 1.55043006e-01 1.24035001e-01
      8.06226015e-01 5.27148008e-01 9.30259973e-02 6.20173998e-02
      6.20173998e-02 1.42565995e-01 5.70265986e-02 1.14053003e-01
      1.99592993e-01 9.40939009e-01 1.42565995e-01 5.70265986e-02
      8.55398998e-02 8.55398998e-02 7.65839964e-02 7.65839964e-02
      3.06335986e-01 4.59504008e-01 5.36087990e-01 5.36087990e-01
      3.06335986e-01 1.14876002e-01 3.82919982e-02 1.13067001e-01
      7.53777996e-02 1.50756001e-01 4.52266991e-01 7.16089010e-01
      3.39199990e-01 2.26133004e-01 2.63821989e-01 7.53777996e-02
      1.42565995e-01 5.70265986e-02 1.14053003e-01 1.99592993e-01
      9.40939009e-01 1.42565995e-01 5.70265986e-02 8.55398998e-02
      8.55398998e-02 5.92348985e-02 1.18469998e-01 5.92348985e-02
      2.07322001e-01 9.18141007e-01 2.36939996e-01 1.48086995e-01
      1.18469998e-01 2.96174008e-02 1.13067001e-01 7.53777996e-02
      1.50756001e-01 4.52266991e-01 7.16089010e-01 3.39199990e-01
      2.26133004e-01 2.63821989e-01 7.53777996e-02 7.77909979e-02
      1.94477007e-01 5.05640984e-01 5.44537008e-01 5.44537008e-01
      2.33373001e-01 1.94477007e-01 3.88954990e-02 1.16686001e-01
      5.92348985e-02 1.18469998e-01 5.92348985e-02 2.07322001e-01
      9.18141007e-01 2.36939996e-01 1.48086995e-01 1.18469998e-01
      2.96174008e-02 4.63241003e-02 6.94862008e-02 6.94862008e-02
      6.94862008e-02 9.72805977e-01 1.85295999e-01 4.63241003e-02 0.
      2.31621005e-02 7.77909979e-02 1.94477007e-01 5.05640984e-01
      5.44537008e-01 5.44537008e-01 2.33373001e-01 1.94477007e-01
      3.88954990e-02 1.16686001e-01 3.11805010e-01 3.56348008e-01
      2.67260998e-01 2.22718000e-01 4.00891989e-01 8.90870988e-02
      4.45434988e-01 4.00891989e-01 3.56348008e-01 4.63241003e-02
      6.94862008e-02 6.94862008e-02 6.94862008e-02 9.72805977e-01
      1.85295999e-01 4.63241003e-02 0. 2.31621005e-02 1.24756999e-01
      1.55946001e-01 1.55946001e-01 1.24756999e-01 8.73296022e-01
      3.74269992e-01 3.11891008e-02 1.24756999e-01 3.11891008e-02
      3.11805010e-01 3.56348008e-01 2.67260998e-01 2.22718000e-01
      4.00891989e-01 8.90870988e-02 4.45434988e-01 4.00891989e-01
      3.56348008e-01 2.84826010e-01 5.28962016e-01 5.69652021e-01
      2.44137004e-01 1.22068003e-01 2.03446999e-01 8.13788027e-02
      4.06893998e-01 1.62757993e-01 1.24756999e-01 1.55946001e-01
      1.55946001e-01 1.24756999e-01 8.73296022e-01 3.74269992e-01
      3.11891008e-02 1.24756999e-01 3.11891008e-02 6.88427985e-02
      1.72106996e-01 1.72106996e-01 4.13056999e-01 7.22850025e-01
      4.81900007e-01 3.44213992e-02 6.88427985e-02 6.88427985e-02
      2.84826010e-01 5.28962016e-01 5.69652021e-01 2.44137004e-01
      1.22068003e-01 2.03446999e-01 8.13788027e-02 4.06893998e-01
      1.62757993e-01 2.75411010e-01 7.86888972e-02 7.86888972e-02
      4.32788998e-01 1.18032999e-01 3.54099989e-01 5.90166986e-01
      4.72133994e-01 1.18032999e-01 6.88427985e-02 1.72106996e-01
      1.72106996e-01 4.13056999e-01 7.22850025e-01 4.81900007e-01
      3.44213992e-02 6.88427985e-02 6.88427985e-02 6.63738012e-01
      2.34261006e-01 3.90433997e-01 3.90433997e-01 0. 1.56174004e-01
      1.95216998e-01 1.17129996e-01 3.51390988e-01 2.75411010e-01
      7.86888972e-02 7.86888972e-02 4.32788998e-01 1.18032999e-01
      3.54099989e-01 5.90166986e-01 4.72133994e-01 1.18032999e-01
      4.35494006e-01 6.33445978e-01 2.37542003e-01 1.97952002e-01
      7.91807994e-02 2.37542003e-01 0. 1.58362001e-01 4.75084990e-01
      6.63738012e-01 2.34261006e-01 3.90433997e-01 3.90433997e-01 0.
      1.56174004e-01 1.95216998e-01 1.17129996e-01 3.51390988e-01
      1.68133005e-01 2.10166007e-01 5.04397988e-01 4.20331001e-01
      5.88464022e-01 8.40663016e-02 1.68133005e-01 1.68133005e-01
      2.94232011e-01 4.35494006e-01 6.33445978e-01 2.37542003e-01
      1.97952002e-01 7.91807994e-02 2.37542003e-01 0. 1.58362001e-01
      4.75084990e-01 1.23507999e-01 1.23507999e-01 3.29355001e-01
      1.23507999e-01 5.35202026e-01 3.70523989e-01 5.76371014e-01
      2.88185000e-01 8.23386982e-02 2.39426002e-01 7.98086971e-02
      7.98086971e-02 3.99042994e-01 6.38469994e-01 2.79329985e-01
      4.38948005e-01 2.79329985e-01 1.19713001e-01 2.05498993e-01
      3.28797996e-01 2.46598005e-01 2.87698001e-01 6.57595992e-01
      1.64398998e-01 4.10997011e-02 3.69897991e-01 3.28797996e-01
      3.52016985e-02 7.04033002e-02 7.04033002e-02 2.81612992e-01
      7.74437010e-01 4.57621992e-01 2.11209998e-01 1.05604999e-01
      2.11209998e-01 7.71517009e-02 3.85757983e-02 1.92879006e-01
      4.62909997e-01 6.17213011e-01 4.62909997e-01 1.92879006e-01
      3.08607012e-01 1.15727998e-01 2.05498993e-01 3.28797996e-01
      2.46598005e-01 2.87698001e-01 6.57595992e-01 1.64398998e-01
      4.10997011e-02 3.69897991e-01 3.28797996e-01 1.16952002e-01
      7.79680982e-02 1.16952002e-01 5.84761024e-01 3.89840990e-01
      5.84761024e-01 1.94920003e-01 1.94920003e-01 2.33904004e-01
      7.71517009e-02 3.85757983e-02 1.92879006e-01 4.62909997e-01
      6.17213011e-01 4.62909997e-01 1.92879006e-01 3.08607012e-01
      1.15727998e-01 1.50328994e-01 1.50328994e-01 1.50328994e-01
      1.87912002e-01 5.63735008e-01 4.50987995e-01 6.01316988e-01
      3.75823006e-02 1.12746999e-01 1.16952002e-01 7.79680982e-02
      1.16952002e-01 5.84761024e-01 3.89840990e-01 5.84761024e-01
      1.94920003e-01 1.94920003e-01 2.33904004e-01 1.43592000e-01
      1.43592000e-01 3.94876987e-01 1.79490000e-01 6.46161973e-01
      5.74366987e-01 1.43592000e-01 3.58978994e-02 3.58978994e-02
      1.50328994e-01 1.50328994e-01 1.50328994e-01 1.87912002e-01
      5.63735008e-01 4.50987995e-01 6.01316988e-01 3.75823006e-02
      1.12746999e-01 1.29098997e-01 6.45496994e-02 1.29098997e-01
      5.48672974e-01 7.42322028e-01 3.22748989e-01 3.22748981e-02
      3.22748981e-02 6.45496994e-02 1.43592000e-01 1.43592000e-01
      3.94876987e-01 1.79490000e-01 6.46161973e-01 5.74366987e-01
      1.43592000e-01 3.58978994e-02 3.58978994e-02 1.57378003e-01
      2.75411010e-01 1.96722001e-01 4.32788998e-01 7.08200991e-01
      2.75411010e-01 2.75411010e-01 1.18032999e-01 7.86888972e-02
      1.29098997e-01 6.45496994e-02 1.29098997e-01 5.48672974e-01
      7.42322028e-01 3.22748989e-01 3.22748981e-02 3.22748981e-02
      6.45496994e-02 2.46034004e-02 7.38101974e-02 4.92068008e-02
      2.21431002e-01 9.59532022e-01 9.84136015e-02 9.84136015e-02
      4.92068008e-02 0. 1.57378003e-01 2.75411010e-01 1.96722001e-01
      4.32788998e-01 7.08200991e-01 2.75411010e-01 2.75411010e-01
      1.18032999e-01 7.86888972e-02 3.42192985e-02 1.36877000e-01
      1.71095997e-01 3.07974011e-01 7.87043989e-01 4.44851011e-01
      1.71095997e-01 6.84385970e-02 6.84385970e-02 2.46034004e-02
      7.38101974e-02 4.92068008e-02 2.21431002e-01 9.59532022e-01
      9.84136015e-02 9.84136015e-02 4.92068008e-02 0. 1.83804005e-01
      7.35215023e-02 2.94086009e-01 3.30846995e-01 7.35215008e-01
      4.41128999e-01 1.10281996e-01 7.35215023e-02 1.10281996e-01
      3.42192985e-02 1.36877000e-01 1.71095997e-01 3.07974011e-01
      7.87043989e-01 4.44851011e-01 1.71095997e-01 6.84385970e-02
      6.84385970e-02 8.59073997e-02 4.72490013e-01 2.14768007e-01
      3.86583000e-01 2.14768007e-01 4.72490013e-01 3.00675988e-01
      4.29536998e-01 1.71814993e-01 1.83804005e-01 7.35215023e-02
      2.94086009e-01 3.30846995e-01 7.35215008e-01 4.41128999e-01
      1.10281996e-01 7.35215023e-02 1.10281996e-01 7.28356987e-02
      2.91343004e-01 1.45670995e-01 3.27760994e-01 8.01192999e-01
      2.54925013e-01 2.18507007e-01 7.28356987e-02 1.45670995e-01
      8.59073997e-02 4.72490013e-01 2.14768007e-01 3.86583000e-01
      2.14768007e-01 4.72490013e-01 3.00675988e-01 4.29536998e-01
      1.71814993e-01 1.87120005e-01 1.87120005e-01 0. 3.74240994e-01
      5.61361015e-01 6.36209011e-01 1.49696007e-01 1.87120005e-01
      1.12272002e-01 7.28356987e-02 2.91343004e-01 1.45670995e-01
      3.27760994e-01 8.01192999e-01 2.54925013e-01 2.18507007e-01
      7.28356987e-02 1.45670995e-01 6.31193966e-02 6.31193966e-02
      3.15596983e-02 1.26239002e-01 7.25874007e-01 6.31193995e-01
      1.26239002e-01 1.57799006e-01 9.46791992e-02 1.87120005e-01
      1.87120005e-01 0. 3.74240994e-01 5.61361015e-01 6.36209011e-01
      1.49696007e-01 1.87120005e-01 1.12272002e-01 7.65839964e-02
      7.65839964e-02 3.06335986e-01 4.59504008e-01 5.36087990e-01
      5.36087990e-01 3.06335986e-01 1.14876002e-01 3.82919982e-02
      6.31193966e-02 6.31193966e-02 3.15596983e-02 1.26239002e-01
      7.25874007e-01 6.31193995e-01 1.26239002e-01 1.57799006e-01
      9.46791992e-02 3.07438001e-02 0. 0. 3.38180989e-01 7.99337983e-01
      2.76694000e-01 3.99668992e-01 9.22313035e-02 3.07438001e-02
      7.65839964e-02 7.65839964e-02 3.06335986e-01 4.59504008e-01
      5.36087990e-01 5.36087990e-01 3.06335986e-01 1.14876002e-01
      3.82919982e-02 1.13067001e-01 7.53777996e-02 1.50756001e-01
      4.52266991e-01 7.16089010e-01 3.39199990e-01 2.26133004e-01
      2.63821989e-01 7.53777996e-02 3.07438001e-02 0. 0. 3.38180989e-01
      7.99337983e-01 2.76694000e-01 3.99668992e-01 9.22313035e-02
      3.07438001e-02 6.91715032e-02 1.03757001e-01 2.42100000e-01
      2.76686013e-01 8.30057025e-01 3.45856994e-01 1.03757001e-01
      1.03757001e-01 1.38343006e-01 1.13067001e-01 7.53777996e-02
      1.50756001e-01 4.52266991e-01 7.16089010e-01 3.39199990e-01
      2.26133004e-01 2.63821989e-01 7.53777996e-02 7.77909979e-02
      1.94477007e-01 5.05640984e-01 5.44537008e-01 5.44537008e-01
      2.33373001e-01 1.94477007e-01 3.88954990e-02 1.16686001e-01
      6.91715032e-02 1.03757001e-01 2.42100000e-01 2.76686013e-01
      8.30057025e-01 3.45856994e-01 1.03757001e-01 1.03757001e-01
      1.38343006e-01 2.61115998e-01 3.04636002e-01 4.35193986e-01
      1.30557999e-01 3.04636002e-01 5.65752029e-01 2.61115998e-01
      1.74078003e-01 3.48154992e-01 7.77909979e-02 1.94477007e-01
      5.05640984e-01 5.44537008e-01 5.44537008e-01 2.33373001e-01
      1.94477007e-01 3.88954990e-02 1.16686001e-01 3.11805010e-01
      3.56348008e-01 2.67260998e-01 2.22718000e-01 4.00891989e-01
      8.90870988e-02 4.45434988e-01 4.00891989e-01 3.56348008e-01
      2.61115998e-01 3.04636002e-01 4.35193986e-01 1.30557999e-01
      3.04636002e-01 5.65752029e-01 2.61115998e-01 1.74078003e-01
      3.48154992e-01 4.06578988e-01 3.61402988e-01 2.25877002e-01
      2.25877002e-01 3.61402988e-01 2.25877002e-01 2.25877002e-01
      4.51754004e-01 4.06578988e-01 3.11805010e-01 3.56348008e-01
      2.67260998e-01 2.22718000e-01 4.00891989e-01 8.90870988e-02
      4.45434988e-01 4.00891989e-01 3.56348008e-01 2.84826010e-01
      5.28962016e-01 5.69652021e-01 2.44137004e-01 1.22068003e-01
      2.03446999e-01 8.13788027e-02 4.06893998e-01 1.62757993e-01
      4.06578988e-01 3.61402988e-01 2.25877002e-01 2.25877002e-01
      3.61402988e-01 2.25877002e-01 2.25877002e-01 4.51754004e-01
      4.06578988e-01 3.38643007e-02 3.38643007e-02 6.77284971e-02
      2.37049997e-01 6.77285016e-01 6.09556973e-01 2.70913988e-01
      1.69321001e-01 6.77284971e-02 2.84826010e-01 5.28962016e-01
      5.69652021e-01 2.44137004e-01 1.22068003e-01 2.03446999e-01
      8.13788027e-02 4.06893998e-01 1.62757993e-01 2.75411010e-01
      7.86888972e-02 7.86888972e-02 4.32788998e-01 1.18032999e-01
      3.54099989e-01 5.90166986e-01 4.72133994e-01 1.18032999e-01
      3.38643007e-02 3.38643007e-02 6.77284971e-02 2.37049997e-01
      6.77285016e-01 6.09556973e-01 2.70913988e-01 1.69321001e-01
      6.77284971e-02 2.43733004e-01 2.43733004e-01 8.12444016e-02
      3.24977994e-01 1.62488997e-01 8.12444016e-02 4.06221986e-01
      6.09332979e-01 4.46844012e-01 2.75411010e-01 7.86888972e-02
      7.86888972e-02 4.32788998e-01 1.18032999e-01 3.54099989e-01
      5.90166986e-01 4.72133994e-01 1.18032999e-01 4.35494006e-01
      6.33445978e-01 2.37542003e-01 1.97952002e-01 7.91807994e-02
      2.37542003e-01 0. 1.58362001e-01 4.75084990e-01 2.43733004e-01
      2.43733004e-01 8.12444016e-02 3.24977994e-01 1.62488997e-01
      8.12444016e-02 4.06221986e-01 6.09332979e-01 4.46844012e-01
      4.56831992e-01 1.52276993e-01 3.80693004e-02 7.61386976e-02
      1.52276993e-01 7.61386976e-02 3.80692989e-01 3.42624009e-01
      6.85248017e-01 4.35494006e-01 6.33445978e-01 2.37542003e-01
      1.97952002e-01 7.91807994e-02 2.37542003e-01 0. 1.58362001e-01
      4.75084990e-01 1.23507999e-01 1.23507999e-01 3.29355001e-01
      1.23507999e-01 5.35202026e-01 3.70523989e-01 5.76371014e-01
      2.88185000e-01 8.23386982e-02 4.56831992e-01 1.52276993e-01
      3.80693004e-02 7.61386976e-02 1.52276993e-01 7.61386976e-02
      3.80692989e-01 3.42624009e-01 6.85248017e-01 4.17028993e-01
      5.42137027e-01 2.91920006e-01 2.50216991e-01 4.58732009e-01
      3.75326008e-01 1.25109002e-01 1.25109002e-01 4.17029001e-02
      3.52016985e-02 7.04033002e-02 7.04033002e-02 2.81612992e-01
      7.74437010e-01 4.57621992e-01 2.11209998e-01 1.05604999e-01
      2.11209998e-01 7.71517009e-02 3.85757983e-02 1.92879006e-01
      4.62909997e-01 6.17213011e-01 4.62909997e-01 1.92879006e-01
      3.08607012e-01 1.15727998e-01 3.19489002e-01 1.59744993e-01
      1.19808003e-01 3.19489002e-01 5.99041998e-01 5.59105992e-01
      2.39617005e-01 1.59744993e-01 3.99361998e-02 2.82528996e-01
      9.41762999e-02 2.82528996e-01 6.12146020e-01 3.76704991e-01
      3.29616994e-01 2.35440999e-01 3.76704991e-01 9.41762999e-02
      7.71517009e-02 3.85757983e-02 1.92879006e-01 4.62909997e-01
      6.17213011e-01 4.62909997e-01 1.92879006e-01 3.08607012e-01
      1.15727998e-01 1.50328994e-01 1.50328994e-01 1.50328994e-01
      1.87912002e-01 5.63735008e-01 4.50987995e-01 6.01316988e-01
      3.75823006e-02 1.12746999e-01 2.82528996e-01 9.41762999e-02
      2.82528996e-01 6.12146020e-01 3.76704991e-01 3.29616994e-01
      2.35440999e-01 3.76704991e-01 9.41762999e-02 3.98093998e-01
      7.96186998e-02 2.38856003e-01 3.58283997e-01 7.16569006e-01
      3.18475008e-01 1.19428001e-01 1.19428001e-01 7.96186998e-02
      1.50328994e-01 1.50328994e-01 1.50328994e-01 1.87912002e-01
      5.63735008e-01 4.50987995e-01 6.01316988e-01 3.75823006e-02
      1.12746999e-01 1.29098997e-01 6.45496994e-02 1.29098997e-01
      5.48672974e-01 7.42322028e-01 3.22748989e-01 3.22748981e-02
      3.22748981e-02 6.45496994e-02 3.98093998e-01 7.96186998e-02
      2.38856003e-01 3.58283997e-01 7.16569006e-01 3.18475008e-01
      1.19428001e-01 1.19428001e-01 7.96186998e-02 1.17343001e-01 0.
      5.86715005e-02 2.05349997e-01 9.09407973e-01 3.22692990e-01
      2.93357000e-02 2.93357000e-02 8.80071968e-02 1.29098997e-01
      6.45496994e-02 1.29098997e-01 5.48672974e-01 7.42322028e-01
      3.22748989e-01 3.22748981e-02 3.22748981e-02 6.45496994e-02
      2.46034004e-02 7.38101974e-02 4.92068008e-02 2.21431002e-01
      9.59532022e-01 9.84136015e-02 9.84136015e-02 4.92068008e-02 0.
      1.17343001e-01 0. 5.86715005e-02 2.05349997e-01 9.09407973e-01
      3.22692990e-01 2.93357000e-02 2.93357000e-02 8.80071968e-02
      3.80970016e-02 1.14290997e-01 2.66678989e-01 3.04776013e-01
      8.38132977e-01 3.04776013e-01 1.14290997e-01 1.14290997e-01 0.
      2.46034004e-02 7.38101974e-02 4.92068008e-02 2.21431002e-01
      9.59532022e-01 9.84136015e-02 9.84136015e-02 4.92068008e-02 0.
      1.83804005e-01 7.35215023e-02 2.94086009e-01 3.30846995e-01
      7.35215008e-01 4.41128999e-01 1.10281996e-01 7.35215023e-02
      1.10281996e-01 3.80970016e-02 1.14290997e-01 2.66678989e-01
      3.04776013e-01 8.38132977e-01 3.04776013e-01 1.14290997e-01
      1.14290997e-01 0. 2.34403998e-01 1.40642002e-01 2.81284004e-01
      5.15688002e-01 4.68807012e-01 4.21927005e-01 3.28164995e-01
      1.40642002e-01 2.34403998e-01 1.83804005e-01 7.35215023e-02
      2.94086009e-01 3.30846995e-01 7.35215008e-01 4.41128999e-01
      1.10281996e-01 7.35215023e-02 1.10281996e-01 7.28356987e-02
      2.91343004e-01 1.45670995e-01 3.27760994e-01 8.01192999e-01
      2.54925013e-01 2.18507007e-01 7.28356987e-02 1.45670995e-01
      2.34403998e-01 1.40642002e-01 2.81284004e-01 5.15688002e-01
      4.68807012e-01 4.21927005e-01 3.28164995e-01 1.40642002e-01
      2.34403998e-01 4.21824992e-01 1.26546994e-01 1.26546994e-01
      5.48371971e-01 3.37460011e-01 4.64006990e-01 2.10912004e-01
      3.37460011e-01 4.21825014e-02 7.28356987e-02 2.91343004e-01
      1.45670995e-01 3.27760994e-01 8.01192999e-01 2.54925013e-01
      2.18507007e-01 7.28356987e-02 1.45670995e-01 6.31193966e-02
      6.31193966e-02 3.15596983e-02 1.26239002e-01 7.25874007e-01
      6.31193995e-01 1.26239002e-01 1.57799006e-01 9.46791992e-02
      4.21824992e-01 1.26546994e-01 1.26546994e-01 5.48371971e-01
      3.37460011e-01 4.64006990e-01 2.10912004e-01 3.37460011e-01
      4.21825014e-02 3.29075992e-01 2.46806994e-01 8.22689980e-02
      1.23404004e-01 4.93613988e-01 6.58151984e-01 2.87941992e-01
      2.05672994e-01 8.22689980e-02 6.31193966e-02 6.31193966e-02
      3.15596983e-02 1.26239002e-01 7.25874007e-01 6.31193995e-01
      1.26239002e-01 1.57799006e-01 9.46791992e-02 3.07438001e-02 0. 0.
      3.38180989e-01 7.99337983e-01 2.76694000e-01 3.99668992e-01
      9.22313035e-02 3.07438001e-02 3.29075992e-01 2.46806994e-01
      8.22689980e-02 1.23404004e-01 4.93613988e-01 6.58151984e-01
      2.87941992e-01 2.05672994e-01 8.22689980e-02 4.10364985e-01
      9.11920965e-02 2.27980003e-01 5.92749000e-01 4.10364985e-01
      3.64769012e-01 2.27980003e-01 1.82383999e-01 1.82383999e-01
      3.07438001e-02 0. 0. 3.38180989e-01 7.99337983e-01 2.76694000e-01
      3.99668992e-01 9.22313035e-02 3.07438001e-02 6.91715032e-02
      1.03757001e-01 2.42100000e-01 2.76686013e-01 8.30057025e-01
      3.45856994e-01 1.03757001e-01 1.03757001e-01 1.38343006e-01
      4.10364985e-01 9.11920965e-02 2.27980003e-01 5.92749000e-01
      4.10364985e-01 3.64769012e-01 2.27980003e-01 1.82383999e-01
      1.82383999e-01 1.55230001e-01 7.76150972e-02 1.16423003e-01
      4.26883012e-01 7.76151001e-01 2.71652997e-01 2.71652997e-01 0.
      1.55230001e-01 6.91715032e-02 1.03757001e-01 2.42100000e-01
      2.76686013e-01 8.30057025e-01 3.45856994e-01 1.03757001e-01
      1.03757001e-01 1.38343006e-01 2.61115998e-01 3.04636002e-01
      4.35193986e-01 1.30557999e-01 3.04636002e-01 5.65752029e-01
      2.61115998e-01 1.74078003e-01 3.48154992e-01 1.55230001e-01
      7.76150972e-02 1.16423003e-01 4.26883012e-01 7.76151001e-01
      2.71652997e-01 2.71652997e-01 0. 1.55230001e-01 2.25877002e-01
      3.16228002e-01 1.80702001e-01 3.61402988e-01 3.16228002e-01
      4.51754004e-01 5.87279975e-01 1.35526001e-01 1.35526001e-01
      2.61115998e-01 3.04636002e-01 4.35193986e-01 1.30557999e-01
      3.04636002e-01 5.65752029e-01 2.61115998e-01 1.74078003e-01
      3.48154992e-01 4.06578988e-01 3.61402988e-01 2.25877002e-01
      2.25877002e-01 3.61402988e-01 2.25877002e-01 2.25877002e-01
      4.51754004e-01 4.06578988e-01 2.25877002e-01 3.16228002e-01
      1.80702001e-01 3.61402988e-01 3.16228002e-01 4.51754004e-01
      5.87279975e-01 1.35526001e-01 1.35526001e-01 2.92174011e-01
      1.25218004e-01 3.33914012e-01 2.92174011e-01 4.59131002e-01
      6.67827010e-01 1.66957006e-01 1.25218004e-01 4.17391993e-02
      4.06578988e-01 3.61402988e-01 2.25877002e-01 2.25877002e-01
      3.61402988e-01 2.25877002e-01 2.25877002e-01 4.51754004e-01
      4.06578988e-01 3.38643007e-02 3.38643007e-02 6.77284971e-02
      2.37049997e-01 6.77285016e-01 6.09556973e-01 2.70913988e-01
      1.69321001e-01 6.77284971e-02 2.92174011e-01 1.25218004e-01
      3.33914012e-01 2.92174011e-01 4.59131002e-01 6.67827010e-01
      1.66957006e-01 1.25218004e-01 4.17391993e-02 2.28558004e-01 0.
      1.95906997e-01 9.79534984e-02 8.48930001e-01 3.91813993e-01
      6.53022975e-02 6.53022975e-02 1.30604997e-01 3.38643007e-02
      3.38643007e-02 6.77284971e-02 2.37049997e-01 6.77285016e-01
      6.09556973e-01 2.70913988e-01 1.69321001e-01 6.77284971e-02
      2.43733004e-01 2.43733004e-01 8.12444016e-02 3.24977994e-01
      1.62488997e-01 8.12444016e-02 4.06221986e-01 6.09332979e-01
      4.46844012e-01 2.28558004e-01 0. 1.95906997e-01 9.79534984e-02
      8.48930001e-01 3.91813993e-01 6.53022975e-02 6.53022975e-02
      1.30604997e-01 7.60286003e-02 3.80143002e-02 1.14042997e-01
      6.46242976e-01 6.08228981e-01 4.18157011e-01 7.60286003e-02
      7.60286003e-02 7.60286003e-02 2.43733004e-01 2.43733004e-01
      8.12444016e-02 3.24977994e-01 1.62488997e-01 8.12444016e-02
      4.06221986e-01 6.09332979e-01 4.46844012e-01 4.56831992e-01
      1.52276993e-01 3.80693004e-02 7.61386976e-02 1.52276993e-01
      7.61386976e-02 3.80692989e-01 3.42624009e-01 6.85248017e-01
      7.60286003e-02 3.80143002e-02 1.14042997e-01 6.46242976e-01
      6.08228981e-01 4.18157011e-01 7.60286003e-02 7.60286003e-02
      7.60286003e-02 8.29450011e-01 1.97487995e-01 3.55479002e-01
      1.18492998e-01 1.18492998e-01 7.89953023e-02 7.89953023e-02
      7.89953023e-02 3.15981001e-01 4.56831992e-01 1.52276993e-01
      3.80693004e-02 7.61386976e-02 1.52276993e-01 7.61386976e-02
      3.80692989e-01 3.42624009e-01 6.85248017e-01 4.17028993e-01
      5.42137027e-01 2.91920006e-01 2.50216991e-01 4.58732009e-01
      3.75326008e-01 1.25109002e-01 1.25109002e-01 4.17029001e-02
      8.29450011e-01 1.97487995e-01 3.55479002e-01 1.18492998e-01
      1.18492998e-01 7.89953023e-02 7.89953023e-02 7.89953023e-02
      3.15981001e-01 5.52317023e-01 2.97401011e-01 1.69944003e-01
      1.27458006e-01 6.37288988e-01 1.69944003e-01 2.12430000e-01
      2.54916012e-01 1.27458006e-01</_>
    <_>
      6.20751977e-01 1.09545000e-01 2.92118996e-01 1.09545000e-01
      6.20751977e-01 3.65148000e-02 1.09545000e-01 1.46059006e-01
      2.92118996e-01 5.58660984e-01 2.39426002e-01 5.18755972e-01
      2.39426002e-01 1.99522004e-01 4.38948005e-01 2.39426002e-01
      1.19713001e-01 0. 3.91674995e-01 3.48154992e-01 2.61115998e-01
      3.04636002e-01 5.22233009e-01 4.35194001e-02 2.61115998e-01
      3.91674995e-01 2.61115998e-01 7.48705029e-01 3.54649991e-01
      2.36432999e-01 1.57621995e-01 2.36432999e-01 2.75839001e-01
      1.97027996e-01 2.36432999e-01 7.88109973e-02 5.58660984e-01
      2.39426002e-01 5.18755972e-01 2.39426002e-01 1.99522004e-01
      4.38948005e-01 2.39426002e-01 1.19713001e-01 0. 3.54099989e-01
      1.96722001e-01 2.36066997e-01 6.68856025e-01 1.18032999e-01
      2.75411010e-01 4.32788998e-01 2.36066997e-01 0. 7.48705029e-01
      3.54649991e-01 2.36432999e-01 1.57621995e-01 2.36432999e-01
      2.75839001e-01 1.97027996e-01 2.36432999e-01 7.88109973e-02
      4.41060007e-01 6.01445019e-01 2.40577996e-01 1.60384998e-01
      8.01927000e-02 8.01927000e-02 1.60384998e-01 4.00963008e-01
      4.00963008e-01 3.54099989e-01 1.96722001e-01 2.36066997e-01
      6.68856025e-01 1.18032999e-01 2.75411010e-01 4.32788998e-01
      2.36066997e-01 0. 5.10688007e-01 7.85674006e-02 4.71403986e-01
      2.74985999e-01 1.17850997e-01 3.14269990e-01 5.49971998e-01
      7.85674006e-02 1.17850997e-01 4.41060007e-01 6.01445019e-01
      2.40577996e-01 1.60384998e-01 8.01927000e-02 8.01927000e-02
      1.60384998e-01 4.00963008e-01 4.00963008e-01 4.89897996e-01
      2.85773993e-01 5.71547985e-01 3.26599002e-01 0. 1.22474000e-01
      2.85773993e-01 2.04124004e-01 3.26599002e-01 5.10688007e-01
      7.85674006e-02 4.71403986e-01 2.74985999e-01 1.17850997e-01
      3.14269990e-01 5.49971998e-01 7.85674006e-02 1.17850997e-01
      5.22233009e-01 2.61115998e-01 3.04636002e-01 2.61115998e-01
      2.17596993e-01 3.48154992e-01 4.78713989e-01 3.04636002e-01
      8.70388001e-02 4.89897996e-01 2.85773993e-01 5.71547985e-01
      3.26599002e-01 0. 1.22474000e-01 2.85773993e-01 2.04124004e-01
      3.26599002e-01 1.74394995e-01 4.88305986e-01 7.67337978e-01
      6.97579980e-02 6.97579980e-02 1.74394995e-01 2.79031992e-01
      1.39515996e-01 6.97579980e-02 5.22233009e-01 2.61115998e-01
      3.04636002e-01 2.61115998e-01 2.17596993e-01 3.48154992e-01
      4.78713989e-01 3.04636002e-01 8.70388001e-02 4.34812993e-01
      4.34812993e-01 5.92926979e-01 1.58114001e-01 0. 1.97641999e-01
      1.58114001e-01 3.95285010e-01 1.58114001e-01 1.74394995e-01
      4.88305986e-01 7.67337978e-01 6.97579980e-02 6.97579980e-02
      1.74394995e-01 2.79031992e-01 1.39515996e-01 6.97579980e-02
      5.13870001e-01 3.95285010e-01 3.16228002e-01 3.95285003e-02 0.
      2.37170994e-01 1.97641999e-01 2.76699007e-01 5.53399026e-01
      4.34812993e-01 4.34812993e-01 5.92926979e-01 1.58114001e-01 0.
      1.97641999e-01 1.58114001e-01 3.95285010e-01 1.58114001e-01
      4.19221997e-01 4.19222005e-02 2.09610999e-01 1.25766993e-01
      1.25766993e-01 2.51533002e-01 7.12677002e-01 3.35377008e-01
      2.51533002e-01 5.13870001e-01 3.95285010e-01 3.16228002e-01
      3.95285003e-02 0. 2.37170994e-01 1.97641999e-01 2.76699007e-01
      5.53399026e-01 3.22854012e-01 8.07133988e-02 1.21069998e-01
      8.07133988e-02 4.43924010e-01 4.03566986e-01 1.61427006e-01
      4.03566986e-01 5.64993978e-01 4.19221997e-01 4.19222005e-02
      2.09610999e-01 1.25766993e-01 1.25766993e-01 2.51533002e-01
      7.12677002e-01 3.35377008e-01 2.51533002e-01 6.65129006e-01 0. 0.
      0. 0. 0. 5.54273985e-02 5.26560009e-01 5.26560009e-01
      3.22854012e-01 8.07133988e-02 1.21069998e-01 8.07133988e-02
      4.43924010e-01 4.03566986e-01 1.61427006e-01 4.03566986e-01
      5.64993978e-01 2.45358005e-01 2.04465002e-01 4.90716010e-01
      3.27143997e-01 4.08929996e-02 3.27143997e-01 5.72502971e-01
      3.27143997e-01 8.17861035e-02 6.65129006e-01 0. 0. 0. 0. 0.
      5.54273985e-02 5.26560009e-01 5.26560009e-01 7.39939988e-01 0. 0.
      0. 1.00901000e-01 3.69969994e-01 3.36335987e-01 3.69969994e-01
      2.35434994e-01 2.45358005e-01 2.04465002e-01 4.90716010e-01
      3.27143997e-01 4.08929996e-02 3.27143997e-01 5.72502971e-01
      3.27143997e-01 8.17861035e-02 1.94331005e-01 1.16598003e-01
      3.49795014e-01 7.38456011e-01 7.77321979e-02 1.55463994e-01
      2.72062987e-01 3.49795014e-01 2.33197004e-01 7.39939988e-01 0. 0.
      0. 1.00901000e-01 3.69969994e-01 3.36335987e-01 3.69969994e-01
      2.35434994e-01 7.25953996e-01 4.71870005e-01 1.45190999e-01
      1.81488007e-01 3.99275005e-01 1.45190999e-01 7.25954026e-02
      7.25954026e-02 7.25954026e-02 1.94331005e-01 1.16598003e-01
      3.49795014e-01 7.38456011e-01 7.77321979e-02 1.55463994e-01
      2.72062987e-01 3.49795014e-01 2.33197004e-01 1.18032999e-01
      4.32788998e-01 5.11478007e-01 2.75411010e-01 7.86888972e-02
      5.90166986e-01 2.75411010e-01 1.57378003e-01 7.86888972e-02
      7.25953996e-01 4.71870005e-01 1.45190999e-01 1.81488007e-01
      3.99275005e-01 1.45190999e-01 7.25954026e-02 7.25954026e-02
      7.25954026e-02 4.15226996e-01 2.49136001e-01 2.07614005e-01
      4.15227003e-02 2.07614005e-01 3.73705000e-01 4.15226996e-01
      1.66090995e-01 5.81318021e-01 1.18032999e-01 4.32788998e-01
      5.11478007e-01 2.75411010e-01 7.86888972e-02 5.90166986e-01
      2.75411010e-01 1.57378003e-01 7.86888972e-02 4.77245003e-01
      6.60800993e-01 1.10133000e-01 0. 3.67112011e-02 1.10133000e-01
      3.67112011e-01 3.30399990e-01 2.56978005e-01 4.15226996e-01
      2.49136001e-01 2.07614005e-01 4.15227003e-02 2.07614005e-01
      3.73705000e-01 4.15226996e-01 1.66090995e-01 5.81318021e-01
      5.52536011e-01 3.55201989e-01 2.36800998e-01 1.57867000e-01
      7.89337009e-02 1.57867000e-01 7.89337009e-02 3.15735012e-01
      5.92002988e-01 4.77245003e-01 6.60800993e-01 1.10133000e-01 0.
      3.67112011e-02 1.10133000e-01 3.67112011e-01 3.30399990e-01
      2.56978005e-01 1.27257004e-01 6.36285022e-02 0. 1.90885007e-01
      3.18141989e-02 1.27257004e-01 6.04471028e-01 7.31727004e-01
      1.59070998e-01 5.52536011e-01 3.55201989e-01 2.36800998e-01
      1.57867000e-01 7.89337009e-02 1.57867000e-01 7.89337009e-02
      3.15735012e-01 5.92002988e-01 5.14259994e-01 4.82118011e-01
      3.21412012e-02 0. 0. 0. 3.21412012e-02 5.46401024e-01
      4.49977010e-01 1.27257004e-01 6.36285022e-02 0. 1.90885007e-01
      3.18141989e-02 1.27257004e-01 6.04471028e-01 7.31727004e-01
      1.59070998e-01 4.57540005e-01 4.57540005e-01 2.49567002e-01
      1.24784000e-01 4.15945016e-02 2.49567002e-01 5.40728986e-01
      2.49567002e-01 2.91162014e-01 5.14259994e-01 4.82118011e-01
      3.21412012e-02 0. 0. 0. 3.21412012e-02 5.46401024e-01
      4.49977010e-01 4.66084987e-01 4.23713997e-02 3.38970989e-01
      2.11857006e-01 1.69485003e-01 3.81341994e-01 5.93199015e-01
      2.96600014e-01 8.47427025e-02 4.57540005e-01 4.57540005e-01
      2.49567002e-01 1.24784000e-01 4.15945016e-02 2.49567002e-01
      5.40728986e-01 2.49567002e-01 2.91162014e-01 7.69231021e-02
      4.61537987e-01 6.53846025e-01 3.84615004e-01 2.30768993e-01
      2.69230992e-01 7.69231021e-02 3.84614989e-02 2.69230992e-01
      4.66084987e-01 4.23713997e-02 3.38970989e-01 2.11857006e-01
      1.69485003e-01 3.81341994e-01 5.93199015e-01 2.96600014e-01
      8.47427025e-02 5.67775011e-01 3.64998013e-01 3.64998013e-01
      4.05553989e-02 4.05553989e-02 8.11107010e-02 4.86663997e-01
      2.43331999e-01 3.24443012e-01 7.69231021e-02 4.61537987e-01
      6.53846025e-01 3.84615004e-01 2.30768993e-01 2.69230992e-01
      7.69231021e-02 3.84614989e-02 2.69230992e-01 3.38970989e-01
      1.27113998e-01 2.54227996e-01 2.96600014e-01 1.69485003e-01
      6.35569990e-01 4.23714012e-01 1.27113998e-01 2.96600014e-01
      5.67775011e-01 3.64998013e-01 3.64998013e-01 4.05553989e-02
      4.05553989e-02 8.11107010e-02 4.86663997e-01 2.43331999e-01
      3.24443012e-01 5.06024003e-01 2.33549997e-01 3.89248990e-02
      3.89248990e-02 5.06024003e-01 5.44948995e-01 2.33549997e-01
      2.33549997e-01 1.55699998e-01 3.38970989e-01 1.27113998e-01
      2.54227996e-01 2.96600014e-01 1.69485003e-01 6.35569990e-01
      4.23714012e-01 1.27113998e-01 2.96600014e-01 5.22937000e-01
      1.60904005e-01 4.02259007e-02 1.20678000e-01 3.62033010e-01
      1.60904005e-01 2.81581014e-01 3.62033010e-01 5.63162982e-01
      3.91674995e-01 3.48154992e-01 2.61115998e-01 3.04636002e-01
      5.22233009e-01 4.35194001e-02 2.61115998e-01 3.91674995e-01
      2.61115998e-01 7.48705029e-01 3.54649991e-01 2.36432999e-01
      1.57621995e-01 2.36432999e-01 2.75839001e-01 1.97027996e-01
      2.36432999e-01 7.88109973e-02 5.40866971e-01 4.63600010e-01
      1.93167001e-01 3.86333987e-02 5.02233982e-01 3.86333987e-02
      7.72667006e-02 2.70433992e-01 3.47700000e-01 6.59727991e-01
      1.55230001e-01 1.16423003e-01 7.76150972e-02 1.94038004e-01
      1.94038004e-01 3.10460001e-01 5.43304980e-01 2.32844993e-01
      7.48705029e-01 3.54649991e-01 2.36432999e-01 1.57621995e-01
      2.36432999e-01 2.75839001e-01 1.97027996e-01 2.36432999e-01
      7.88109973e-02 4.41060007e-01 6.01445019e-01 2.40577996e-01
      1.60384998e-01 8.01927000e-02 8.01927000e-02 1.60384998e-01
      4.00963008e-01 4.00963008e-01 6.59727991e-01 1.55230001e-01
      1.16423003e-01 7.76150972e-02 1.94038004e-01 1.94038004e-01
      3.10460001e-01 5.43304980e-01 2.32844993e-01 5.95726013e-01
      1.58859998e-01 1.19144998e-01 1.98575005e-01 7.94301033e-02
      1.19144998e-01 3.57436001e-01 4.36865985e-01 4.76581007e-01
      4.41060007e-01 6.01445019e-01 2.40577996e-01 1.60384998e-01
      8.01927000e-02 8.01927000e-02 1.60384998e-01 4.00963008e-01
      4.00963008e-01 4.89897996e-01 2.85773993e-01 5.71547985e-01
      3.26599002e-01 0. 1.22474000e-01 2.85773993e-01 2.04124004e-01
      3.26599002e-01 5.95726013e-01 1.58859998e-01 1.19144998e-01
      1.98575005e-01 7.94301033e-02 1.19144998e-01 3.57436001e-01
      4.36865985e-01 4.76581007e-01 8.76308978e-02 2.92102993e-02
      5.84205985e-02 5.25785983e-01 0. 7.88677990e-01 2.92102993e-01
      2.92102993e-02 5.84205985e-02 4.89897996e-01 2.85773993e-01
      5.71547985e-01 3.26599002e-01 0. 1.22474000e-01 2.85773993e-01
      2.04124004e-01 3.26599002e-01 1.74394995e-01 4.88305986e-01
      7.67337978e-01 6.97579980e-02 6.97579980e-02 1.74394995e-01
      2.79031992e-01 1.39515996e-01 6.97579980e-02 8.76308978e-02
      2.92102993e-02 5.84205985e-02 5.25785983e-01 0. 7.88677990e-01
      2.92102993e-01 2.92102993e-02 5.84205985e-02 1.11648001e-01
      7.44322985e-02 4.09377992e-01 1.48864999e-01 0. 4.83810008e-01
      5.58242023e-01 4.83810008e-01 1.11648001e-01 1.74394995e-01
      4.88305986e-01 7.67337978e-01 6.97579980e-02 6.97579980e-02
      1.74394995e-01 2.79031992e-01 1.39515996e-01 6.97579980e-02
      5.13870001e-01 3.95285010e-01 3.16228002e-01 3.95285003e-02 0.
      2.37170994e-01 1.97641999e-01 2.76699007e-01 5.53399026e-01
      1.11648001e-01 7.44322985e-02 4.09377992e-01 1.48864999e-01 0.
      4.83810008e-01 5.58242023e-01 4.83810008e-01 1.11648001e-01
      1.92307994e-01 5.38461983e-01 2.30768993e-01 0. 0. 1.92307994e-01
      5.00000000e-01 4.61537987e-01 3.46154004e-01 5.13870001e-01
      3.95285010e-01 3.16228002e-01 3.95285003e-02 0. 2.37170994e-01
      1.97641999e-01 2.76699007e-01 5.53399026e-01 3.22854012e-01
      8.07133988e-02 1.21069998e-01 8.07133988e-02 4.43924010e-01
      4.03566986e-01 1.61427006e-01 4.03566986e-01 5.64993978e-01
      1.92307994e-01 5.38461983e-01 2.30768993e-01 0. 0. 1.92307994e-01
      5.00000000e-01 4.61537987e-01 3.46154004e-01 2.20971003e-01
      1.76777005e-01 3.53552997e-01 3.97747993e-01 3.53552997e-01
      4.41942006e-01 4.86135989e-01 1.76777005e-01 2.20971003e-01
      3.22854012e-01 8.07133988e-02 1.21069998e-01 8.07133988e-02
      4.43924010e-01 4.03566986e-01 1.61427006e-01 4.03566986e-01
      5.64993978e-01 2.45358005e-01 2.04465002e-01 4.90716010e-01
      3.27143997e-01 4.08929996e-02 3.27143997e-01 5.72502971e-01
      3.27143997e-01 8.17861035e-02 2.20971003e-01 1.76777005e-01
      3.53552997e-01 3.97747993e-01 3.53552997e-01 4.41942006e-01
      4.86135989e-01 1.76777005e-01 2.20971003e-01 4.53631997e-01
      3.71154010e-01 3.29914004e-01 1.64957002e-01 2.06196994e-01
      1.64957002e-01 6.18589997e-01 8.24785978e-02 2.47436002e-01
      2.45358005e-01 2.04465002e-01 4.90716010e-01 3.27143997e-01
      4.08929996e-02 3.27143997e-01 5.72502971e-01 3.27143997e-01
      8.17861035e-02 1.94331005e-01 1.16598003e-01 3.49795014e-01
      7.38456011e-01 7.77321979e-02 1.55463994e-01 2.72062987e-01
      3.49795014e-01 2.33197004e-01 4.53631997e-01 3.71154010e-01
      3.29914004e-01 1.64957002e-01 2.06196994e-01 1.64957002e-01
      6.18589997e-01 8.24785978e-02 2.47436002e-01 8.38756979e-01 0. 0.
      0. 0. 0. 2.70567000e-01 1.89397007e-01 4.32906985e-01
      1.94331005e-01 1.16598003e-01 3.49795014e-01 7.38456011e-01
      7.77321979e-02 1.55463994e-01 2.72062987e-01 3.49795014e-01
      2.33197004e-01 1.18032999e-01 4.32788998e-01 5.11478007e-01
      2.75411010e-01 7.86888972e-02 5.90166986e-01 2.75411010e-01
      1.57378003e-01 7.86888972e-02 8.38756979e-01 0. 0. 0. 0. 0.
      2.70567000e-01 1.89397007e-01 4.32906985e-01 4.96699989e-01
      2.98020005e-01 3.31133008e-02 0. 0. 0. 2.64905989e-01
      3.31133008e-01 6.95379019e-01 1.18032999e-01 4.32788998e-01
      5.11478007e-01 2.75411010e-01 7.86888972e-02 5.90166986e-01
      2.75411010e-01 1.57378003e-01 7.86888972e-02 4.77245003e-01
      6.60800993e-01 1.10133000e-01 0. 3.67112011e-02 1.10133000e-01
      3.67112011e-01 3.30399990e-01 2.56978005e-01 4.96699989e-01
      2.98020005e-01 3.31133008e-02 0. 0. 0. 2.64905989e-01
      3.31133008e-01 6.95379019e-01 1.27920002e-01 2.13201001e-01
      5.11681974e-01 2.13201001e-01 1.27920002e-01 5.11681974e-01
      3.83760989e-01 3.41120988e-01 2.98480988e-01 4.77245003e-01
      6.60800993e-01 1.10133000e-01 0. 3.67112011e-02 1.10133000e-01
      3.67112011e-01 3.30399990e-01 2.56978005e-01 1.27257004e-01
      6.36285022e-02 0. 1.90885007e-01 3.18141989e-02 1.27257004e-01
      6.04471028e-01 7.31727004e-01 1.59070998e-01 1.27920002e-01
      2.13201001e-01 5.11681974e-01 2.13201001e-01 1.27920002e-01
      5.11681974e-01 3.83760989e-01 3.41120988e-01 2.98480988e-01
      3.32181990e-01 2.90659010e-01 5.39795995e-01 4.98272985e-01
      1.24568000e-01 3.32181990e-01 3.32181990e-01 4.15227003e-02
      1.66090995e-01 1.27257004e-01 6.36285022e-02 0. 1.90885007e-01
      3.18141989e-02 1.27257004e-01 6.04471028e-01 7.31727004e-01
      1.59070998e-01 4.57540005e-01 4.57540005e-01 2.49567002e-01
      1.24784000e-01 4.15945016e-02 2.49567002e-01 5.40728986e-01
      2.49567002e-01 2.91162014e-01 3.32181990e-01 2.90659010e-01
      5.39795995e-01 4.98272985e-01 1.24568000e-01 3.32181990e-01
      3.32181990e-01 4.15227003e-02 1.66090995e-01 4.76204991e-01
      7.14308023e-01 2.77787000e-01 2.38103002e-01 1.58735007e-01
      1.98419005e-01 1.19051002e-01 1.58735007e-01 1.58735007e-01
      4.57540005e-01 4.57540005e-01 2.49567002e-01 1.24784000e-01
      4.15945016e-02 2.49567002e-01 5.40728986e-01 2.49567002e-01
      2.91162014e-01 7.69231021e-02 4.61537987e-01 6.53846025e-01
      3.84615004e-01 2.30768993e-01 2.69230992e-01 7.69231021e-02
      3.84614989e-02 2.69230992e-01 4.76204991e-01 7.14308023e-01
      2.77787000e-01 2.38103002e-01 1.58735007e-01 1.98419005e-01
      1.19051002e-01 1.58735007e-01 1.58735007e-01 1.71498999e-01
      1.28624007e-01 1.28624007e-01 4.28746015e-01 3.42997015e-01
      5.57370007e-01 3.00123006e-01 3.42997015e-01 3.42997015e-01
      7.69231021e-02 4.61537987e-01 6.53846025e-01 3.84615004e-01
      2.30768993e-01 2.69230992e-01 7.69231021e-02 3.84614989e-02
      2.69230992e-01 3.38970989e-01 1.27113998e-01 2.54227996e-01
      2.96600014e-01 1.69485003e-01 6.35569990e-01 4.23714012e-01
      1.27113998e-01 2.96600014e-01 1.71498999e-01 1.28624007e-01
      1.28624007e-01 4.28746015e-01 3.42997015e-01 5.57370007e-01
      3.00123006e-01 3.42997015e-01 3.42997015e-01 4.10515994e-01
      5.59795022e-01 5.97114980e-01 1.11959003e-01 7.46392980e-02
      1.11959003e-01 1.11959003e-01 7.46392980e-02 3.35877001e-01
      3.38970989e-01 1.27113998e-01 2.54227996e-01 2.96600014e-01
      1.69485003e-01 6.35569990e-01 4.23714012e-01 1.27113998e-01
      2.96600014e-01 5.22937000e-01 1.60904005e-01 4.02259007e-02
      1.20678000e-01 3.62033010e-01 1.60904005e-01 2.81581014e-01
      3.62033010e-01 5.63162982e-01 4.10515994e-01 5.59795022e-01
      5.97114980e-01 1.11959003e-01 7.46392980e-02 1.11959003e-01
      1.11959003e-01 7.46392980e-02 3.35877001e-01 5.88967979e-01
      5.15347004e-01 4.04915988e-01 2.94483989e-01 2.94483989e-01 0. 0.
      3.68104987e-02 2.20863000e-01 5.40866971e-01 4.63600010e-01
      1.93167001e-01 3.86333987e-02 5.02233982e-01 3.86333987e-02
      7.72667006e-02 2.70433992e-01 3.47700000e-01 6.59727991e-01
      1.55230001e-01 1.16423003e-01 7.76150972e-02 1.94038004e-01
      1.94038004e-01 3.10460001e-01 5.43304980e-01 2.32844993e-01
      6.41542017e-01 1.60384998e-01 2.80674011e-01 4.00963016e-02
      4.81155992e-01 2.00481996e-01 2.00481996e-01 2.00481996e-01
      3.60866994e-01 4.00891989e-01 3.11805010e-01 4.89978999e-01
      2.67260998e-01 1.78174004e-01 1.33631006e-01 3.56348008e-01
      3.56348008e-01 3.56348008e-01 6.59727991e-01 1.55230001e-01
      1.16423003e-01 7.76150972e-02 1.94038004e-01 1.94038004e-01
      3.10460001e-01 5.43304980e-01 2.32844993e-01 5.95726013e-01
      1.58859998e-01 1.19144998e-01 1.98575005e-01 7.94301033e-02
      1.19144998e-01 3.57436001e-01 4.36865985e-01 4.76581007e-01
      4.00891989e-01 3.11805010e-01 4.89978999e-01 2.67260998e-01
      1.78174004e-01 1.33631006e-01 3.56348008e-01 3.56348008e-01
      3.56348008e-01 3.55643004e-01 4.44554001e-01 2.66732991e-01
      8.89108032e-02 3.55643004e-01 3.55643004e-01 3.11188012e-01
      2.22277001e-01 4.44554001e-01 5.95726013e-01 1.58859998e-01
      1.19144998e-01 1.98575005e-01 7.94301033e-02 1.19144998e-01
      3.57436001e-01 4.36865985e-01 4.76581007e-01 8.76308978e-02
      2.92102993e-02 5.84205985e-02 5.25785983e-01 0. 7.88677990e-01
      2.92102993e-01 2.92102993e-02 5.84205985e-02 3.55643004e-01
      4.44554001e-01 2.66732991e-01 8.89108032e-02 3.55643004e-01
      3.55643004e-01 3.11188012e-01 2.22277001e-01 4.44554001e-01 0.
      6.92543015e-02 4.15526003e-01 3.46271992e-01 3.46271992e-02
      7.61798024e-01 2.42390007e-01 2.07763001e-01 1.38509005e-01
      8.76308978e-02 2.92102993e-02 5.84205985e-02 5.25785983e-01 0.
      7.88677990e-01 2.92102993e-01 2.92102993e-02 5.84205985e-02
      1.11648001e-01 7.44322985e-02 4.09377992e-01 1.48864999e-01 0.
      4.83810008e-01 5.58242023e-01 4.83810008e-01 1.11648001e-01 0.
      6.92543015e-02 4.15526003e-01 3.46271992e-01 3.46271992e-02
      7.61798024e-01 2.42390007e-01 2.07763001e-01 1.38509005e-01
      5.21916986e-01 1.73971996e-01 1.04382999e-01 6.95888996e-02 0. 0.
      3.13149989e-01 3.82739007e-01 6.61095023e-01 1.11648001e-01
      7.44322985e-02 4.09377992e-01 1.48864999e-01 0. 4.83810008e-01
      5.58242023e-01 4.83810008e-01 1.11648001e-01 1.92307994e-01
      5.38461983e-01 2.30768993e-01 0. 0. 1.92307994e-01 5.00000000e-01
      4.61537987e-01 3.46154004e-01 5.21916986e-01 1.73971996e-01
      1.04382999e-01 6.95888996e-02 0. 0. 3.13149989e-01 3.82739007e-01
      6.61095023e-01 1.97385997e-01 3.28975990e-02 1.97385997e-01 0. 0.
      1.31589994e-01 4.93463993e-01 7.56644011e-01 2.96077996e-01
      1.92307994e-01 5.38461983e-01 2.30768993e-01 0. 0. 1.92307994e-01
      5.00000000e-01 4.61537987e-01 3.46154004e-01 2.20971003e-01
      1.76777005e-01 3.53552997e-01 3.97747993e-01 3.53552997e-01
      4.41942006e-01 4.86135989e-01 1.76777005e-01 2.20971003e-01
      1.97385997e-01 3.28975990e-02 1.97385997e-01 0. 0. 1.31589994e-01
      4.93463993e-01 7.56644011e-01 2.96077996e-01 4.41080987e-01
      4.85188991e-01 2.64649004e-01 1.76431999e-01 2.20541000e-01
      1.76431999e-01 3.52865010e-01 2.64649004e-01 4.41080987e-01
      2.20971003e-01 1.76777005e-01 3.53552997e-01 3.97747993e-01
      3.53552997e-01 4.41942006e-01 4.86135989e-01 1.76777005e-01
      2.20971003e-01 4.53631997e-01 3.71154010e-01 3.29914004e-01
      1.64957002e-01 2.06196994e-01 1.64957002e-01 6.18589997e-01
      8.24785978e-02 2.47436002e-01 4.41080987e-01 4.85188991e-01
      2.64649004e-01 1.76431999e-01 2.20541000e-01 1.76431999e-01
      3.52865010e-01 2.64649004e-01 4.41080987e-01 6.09109998e-01
      6.09109998e-01 1.52276993e-01 1.14207998e-01 7.61386976e-02
      1.52276993e-01 1.52276993e-01 3.42624009e-01 2.28415996e-01
      4.53631997e-01 3.71154010e-01 3.29914004e-01 1.64957002e-01
      2.06196994e-01 1.64957002e-01 6.18589997e-01 8.24785978e-02
      2.47436002e-01 8.38756979e-01 0. 0. 0. 0. 0. 2.70567000e-01
      1.89397007e-01 4.32906985e-01 6.09109998e-01 6.09109998e-01
      1.52276993e-01 1.14207998e-01 7.61386976e-02 1.52276993e-01
      1.52276993e-01 3.42624009e-01 2.28415996e-01 2.07973003e-01
      4.99134004e-01 5.40728986e-01 2.07973003e-01 1.66378006e-01
      2.91162014e-01 2.91162014e-01 4.15945016e-02 4.15944993e-01
      8.38756979e-01 0. 0. 0. 0. 0. 2.70567000e-01 1.89397007e-01
      4.32906985e-01 4.96699989e-01 2.98020005e-01 3.31133008e-02 0. 0.
      0. 2.64905989e-01 3.31133008e-01 6.95379019e-01 2.07973003e-01
      4.99134004e-01 5.40728986e-01 2.07973003e-01 1.66378006e-01
      2.91162014e-01 2.91162014e-01 4.15945016e-02 4.15944993e-01
      3.53552997e-01 4.41942006e-01 4.86135989e-01 3.53552997e-01
      1.76777005e-01 1.32583007e-01 3.53552997e-01 2.20971003e-01
      3.09359014e-01 4.96699989e-01 2.98020005e-01 3.31133008e-02 0. 0.
      0. 2.64905989e-01 3.31133008e-01 6.95379019e-01 1.27920002e-01
      2.13201001e-01 5.11681974e-01 2.13201001e-01 1.27920002e-01
      5.11681974e-01 3.83760989e-01 3.41120988e-01 2.98480988e-01
      3.53552997e-01 4.41942006e-01 4.86135989e-01 3.53552997e-01
      1.76777005e-01 1.32583007e-01 3.53552997e-01 2.20971003e-01
      3.09359014e-01 4.93196994e-01 4.52096999e-01 4.10997003e-01
      2.05498993e-01 4.10997011e-02 8.21994990e-02 1.64398998e-01
      4.10997003e-01 3.69897991e-01 1.27920002e-01 2.13201001e-01
      5.11681974e-01 2.13201001e-01 1.27920002e-01 5.11681974e-01
      3.83760989e-01 3.41120988e-01 2.98480988e-01 3.32181990e-01
      2.90659010e-01 5.39795995e-01 4.98272985e-01 1.24568000e-01
      3.32181990e-01 3.32181990e-01 4.15227003e-02 1.66090995e-01
      4.93196994e-01 4.52096999e-01 4.10997003e-01 2.05498993e-01
      4.10997011e-02 8.21994990e-02 1.64398998e-01 4.10997003e-01
      3.69897991e-01 6.82287991e-01 3.79049003e-01 1.89524993e-01
      1.51620001e-01 3.79048996e-02 3.79048996e-02 2.27429003e-01
      2.65334010e-01 4.54858989e-01 3.32181990e-01 2.90659010e-01
      5.39795995e-01 4.98272985e-01 1.24568000e-01 3.32181990e-01
      3.32181990e-01 4.15227003e-02 1.66090995e-01 4.76204991e-01
      7.14308023e-01 2.77787000e-01 2.38103002e-01 1.58735007e-01
      1.98419005e-01 1.19051002e-01 1.58735007e-01 1.58735007e-01
      6.82287991e-01 3.79049003e-01 1.89524993e-01 1.51620001e-01
      3.79048996e-02 3.79048996e-02 2.27429003e-01 2.65334010e-01
      4.54858989e-01 4.27569002e-02 2.99297988e-01 3.42054993e-01
      4.27569002e-01 1.28270999e-01 3.42054993e-01 5.13082981e-01
      1.71028003e-01 4.27569002e-01 4.76204991e-01 7.14308023e-01
      2.77787000e-01 2.38103002e-01 1.58735007e-01 1.98419005e-01
      1.19051002e-01 1.58735007e-01 1.58735007e-01 1.71498999e-01
      1.28624007e-01 1.28624007e-01 4.28746015e-01 3.42997015e-01
      5.57370007e-01 3.00123006e-01 3.42997015e-01 3.42997015e-01
      4.27569002e-02 2.99297988e-01 3.42054993e-01 4.27569002e-01
      1.28270999e-01 3.42054993e-01 5.13082981e-01 1.71028003e-01
      4.27569002e-01 4.60518003e-01 3.45387995e-01 1.91881999e-01
      3.83764990e-02 3.83764990e-02 3.83764990e-02 2.68635005e-01
      4.22140986e-01 6.14023983e-01 1.71498999e-01 1.28624007e-01
      1.28624007e-01 4.28746015e-01 3.42997015e-01 5.57370007e-01
      3.00123006e-01 3.42997015e-01 3.42997015e-01 4.10515994e-01
      5.59795022e-01 5.97114980e-01 1.11959003e-01 7.46392980e-02
      1.11959003e-01 1.11959003e-01 7.46392980e-02 3.35877001e-01
      4.60518003e-01 3.45387995e-01 1.91881999e-01 3.83764990e-02
      3.83764990e-02 3.83764990e-02 2.68635005e-01 4.22140986e-01
      6.14023983e-01 2.18217999e-01 1.74574003e-01 5.23723006e-01
      3.05505008e-01 5.23723006e-01 3.49148989e-01 3.05505008e-01
      2.18217999e-01 1.30931005e-01 4.10515994e-01 5.59795022e-01
      5.97114980e-01 1.11959003e-01 7.46392980e-02 1.11959003e-01
      1.11959003e-01 7.46392980e-02 3.35877001e-01 5.88967979e-01
      5.15347004e-01 4.04915988e-01 2.94483989e-01 2.94483989e-01 0. 0.
      3.68104987e-02 2.20863000e-01 2.18217999e-01 1.74574003e-01
      5.23723006e-01 3.05505008e-01 5.23723006e-01 3.49148989e-01
      3.05505008e-01 2.18217999e-01 1.30931005e-01 3.65599990e-01
      8.12444016e-02 2.43733004e-01 8.12444016e-02 3.24977994e-01
      4.06221986e-01 6.49955988e-01 2.03110993e-01 2.43733004e-01
      6.41542017e-01 1.60384998e-01 2.80674011e-01 4.00963016e-02
      4.81155992e-01 2.00481996e-01 2.00481996e-01 2.00481996e-01
      3.60866994e-01 4.00891989e-01 3.11805010e-01 4.89978999e-01
      2.67260998e-01 1.78174004e-01 1.33631006e-01 3.56348008e-01
      3.56348008e-01 3.56348008e-01 7.18277991e-01 2.39426002e-01
      1.99522004e-01 3.99043001e-02 3.59138995e-01 3.19234997e-01
      2.39426002e-01 1.99522004e-01 2.39426002e-01 2.97939986e-01
      1.27688006e-01 1.27688006e-01 3.40503007e-01 4.25628006e-01
      5.53317010e-01 4.25628006e-01 2.55376995e-01 1.70250997e-01
      4.00891989e-01 3.11805010e-01 4.89978999e-01 2.67260998e-01
      1.78174004e-01 1.33631006e-01 3.56348008e-01 3.56348008e-01
      3.56348008e-01 3.55643004e-01 4.44554001e-01 2.66732991e-01
      8.89108032e-02 3.55643004e-01 3.55643004e-01 3.11188012e-01
      2.22277001e-01 4.44554001e-01 2.97939986e-01 1.27688006e-01
      1.27688006e-01 3.40503007e-01 4.25628006e-01 5.53317010e-01
      4.25628006e-01 2.55376995e-01 1.70250997e-01 6.76481009e-01
      3.00657988e-01 1.87912002e-01 3.75823006e-02 0. 1.87912002e-01
      2.25493997e-01 3.00657988e-01 4.88570005e-01 3.55643004e-01
      4.44554001e-01 2.66732991e-01 8.89108032e-02 3.55643004e-01
      3.55643004e-01 3.11188012e-01 2.22277001e-01 4.44554001e-01 0.
      6.92543015e-02 4.15526003e-01 3.46271992e-01 3.46271992e-02
      7.61798024e-01 2.42390007e-01 2.07763001e-01 1.38509005e-01
      6.76481009e-01 3.00657988e-01 1.87912002e-01 3.75823006e-02 0.
      1.87912002e-01 2.25493997e-01 3.00657988e-01 4.88570005e-01
      3.66618000e-02 3.29955995e-01 5.86588025e-01 5.13265014e-01
      1.09985001e-01 4.76603001e-01 1.46647006e-01 1.46647006e-01 0. 0.
      6.92543015e-02 4.15526003e-01 3.46271992e-01 3.46271992e-02
      7.61798024e-01 2.42390007e-01 2.07763001e-01 1.38509005e-01
      5.21916986e-01 1.73971996e-01 1.04382999e-01 6.95888996e-02 0. 0.
      3.13149989e-01 3.82739007e-01 6.61095023e-01 3.66618000e-02
      3.29955995e-01 5.86588025e-01 5.13265014e-01 1.09985001e-01
      4.76603001e-01 1.46647006e-01 1.46647006e-01 0. 7.78216004e-01
      1.24514997e-01 0. 0. 0. 3.11286002e-02 3.42415005e-01
      3.11286002e-01 4.04671997e-01 5.21916986e-01 1.73971996e-01
      1.04382999e-01 6.95888996e-02 0. 0. 3.13149989e-01 3.82739007e-01
      6.61095023e-01 1.97385997e-01 3.28975990e-02 1.97385997e-01 0. 0.
      1.31589994e-01 4.93463993e-01 7.56644011e-01 2.96077996e-01
      7.78216004e-01 1.24514997e-01 0. 0. 0. 3.11286002e-02
      3.42415005e-01 3.11286002e-01 4.04671997e-01 4.26241010e-01
      1.93746001e-01 2.71243989e-01 3.09994012e-01 3.87491994e-02 0.
      2.32494995e-01 3.48742992e-01 6.58737004e-01 1.97385997e-01
      3.28975990e-02 1.97385997e-01 0. 0. 1.31589994e-01 4.93463993e-01
      7.56644011e-01 2.96077996e-01 4.41080987e-01 4.85188991e-01
      2.64649004e-01 1.76431999e-01 2.20541000e-01 1.76431999e-01
      3.52865010e-01 2.64649004e-01 4.41080987e-01 4.26241010e-01
      1.93746001e-01 2.71243989e-01 3.09994012e-01 3.87491994e-02 0.
      2.32494995e-01 3.48742992e-01 6.58737004e-01 3.96203011e-01
      1.76090002e-01 3.52180004e-01 3.08158010e-01 3.96203011e-01
      4.40225005e-01 4.40225005e-01 1.76090002e-01 1.32067993e-01
      4.41080987e-01 4.85188991e-01 2.64649004e-01 1.76431999e-01
      2.20541000e-01 1.76431999e-01 3.52865010e-01 2.64649004e-01
      4.41080987e-01 6.09109998e-01 6.09109998e-01 1.52276993e-01
      1.14207998e-01 7.61386976e-02 1.52276993e-01 1.52276993e-01
      3.42624009e-01 2.28415996e-01 3.96203011e-01 1.76090002e-01
      3.52180004e-01 3.08158010e-01 3.96203011e-01 4.40225005e-01
      4.40225005e-01 1.76090002e-01 1.32067993e-01 1.78174004e-01
      2.67260998e-01 2.67260998e-01 3.56348008e-01 4.00891989e-01
      4.00891989e-01 4.00891989e-01 4.45434988e-01 1.33631006e-01
      6.09109998e-01 6.09109998e-01 1.52276993e-01 1.14207998e-01
      7.61386976e-02 1.52276993e-01 1.52276993e-01 3.42624009e-01
      2.28415996e-01 2.07973003e-01 4.99134004e-01 5.40728986e-01
      2.07973003e-01 1.66378006e-01 2.91162014e-01 2.91162014e-01
      4.15945016e-02 4.15944993e-01 1.78174004e-01 2.67260998e-01
      2.67260998e-01 3.56348008e-01 4.00891989e-01 4.00891989e-01
      4.00891989e-01 4.45434988e-01 1.33631006e-01 2.18009993e-01
      2.61611998e-01 1.30805999e-01 4.79622990e-01 2.18009993e-01
      4.79622990e-01 4.36021000e-01 3.48816991e-01 2.18009993e-01
      2.07973003e-01 4.99134004e-01 5.40728986e-01 2.07973003e-01
      1.66378006e-01 2.91162014e-01 2.91162014e-01 4.15945016e-02
      4.15944993e-01 3.53552997e-01 4.41942006e-01 4.86135989e-01
      3.53552997e-01 1.76777005e-01 1.32583007e-01 3.53552997e-01
      2.20971003e-01 3.09359014e-01 2.18009993e-01 2.61611998e-01
      1.30805999e-01 4.79622990e-01 2.18009993e-01 4.79622990e-01
      4.36021000e-01 3.48816991e-01 2.18009993e-01 2.18009993e-01
      3.92419010e-01 2.18009993e-01 1.30805999e-01 2.61611998e-01
      3.05213988e-01 4.79622990e-01 5.23225009e-01 2.61611998e-01
      3.53552997e-01 4.41942006e-01 4.86135989e-01 3.53552997e-01
      1.76777005e-01 1.32583007e-01 3.53552997e-01 2.20971003e-01
      3.09359014e-01 4.93196994e-01 4.52096999e-01 4.10997003e-01
      2.05498993e-01 4.10997011e-02 8.21994990e-02 1.64398998e-01
      4.10997003e-01 3.69897991e-01 2.18009993e-01 3.92419010e-01
      2.18009993e-01 1.30805999e-01 2.61611998e-01 3.05213988e-01
      4.79622990e-01 5.23225009e-01 2.61611998e-01 1.62757993e-01
      2.44137004e-01 2.03446999e-01 3.25515002e-01 8.13788027e-02
      1.22068003e-01 3.66205007e-01 4.88272995e-01 6.10341012e-01
      4.93196994e-01 4.52096999e-01 4.10997003e-01 2.05498993e-01
      4.10997011e-02 8.21994990e-02 1.64398998e-01 4.10997003e-01
      3.69897991e-01 6.82287991e-01 3.79049003e-01 1.89524993e-01
      1.51620001e-01 3.79048996e-02 3.79048996e-02 2.27429003e-01
      2.65334010e-01 4.54858989e-01 1.62757993e-01 2.44137004e-01
      2.03446999e-01 3.25515002e-01 8.13788027e-02 1.22068003e-01
      3.66205007e-01 4.88272995e-01 6.10341012e-01 5.94789028e-01
      1.58610001e-01 4.75831002e-01 3.96526009e-02 7.93052018e-02
      1.98263004e-01 4.36177999e-01 2.37914994e-01 3.17220986e-01
      6.82287991e-01 3.79049003e-01 1.89524993e-01 1.51620001e-01
      3.79048996e-02 3.79048996e-02 2.27429003e-01 2.65334010e-01
      4.54858989e-01 4.27569002e-02 2.99297988e-01 3.42054993e-01
      4.27569002e-01 1.28270999e-01 3.42054993e-01 5.13082981e-01
      1.71028003e-01 4.27569002e-01 5.94789028e-01 1.58610001e-01
      4.75831002e-01 3.96526009e-02 7.93052018e-02 1.98263004e-01
      4.36177999e-01 2.37914994e-01 3.17220986e-01 2.77945012e-01
      3.24268997e-01 3.70593011e-01 3.70593011e-01 4.16916996e-01
      2.77945012e-01 3.70593011e-01 2.77945012e-01 2.77945012e-01
      4.27569002e-02 2.99297988e-01 3.42054993e-01 4.27569002e-01
      1.28270999e-01 3.42054993e-01 5.13082981e-01 1.71028003e-01
      4.27569002e-01 4.60518003e-01 3.45387995e-01 1.91881999e-01
      3.83764990e-02 3.83764990e-02 3.83764990e-02 2.68635005e-01
      4.22140986e-01 6.14023983e-01 2.77945012e-01 3.24268997e-01
      3.70593011e-01 3.70593011e-01 4.16916996e-01 2.77945012e-01
      3.70593011e-01 2.77945012e-01 2.77945012e-01 5.37666976e-01
      2.30428994e-01 4.22452003e-01 7.68095031e-02 0. 0. 3.84048015e-01
      4.22452003e-01 3.84048015e-01 4.60518003e-01 3.45387995e-01
      1.91881999e-01 3.83764990e-02 3.83764990e-02 3.83764990e-02
      2.68635005e-01 4.22140986e-01 6.14023983e-01 2.18217999e-01
      1.74574003e-01 5.23723006e-01 3.05505008e-01 5.23723006e-01
      3.49148989e-01 3.05505008e-01 2.18217999e-01 1.30931005e-01
      5.37666976e-01 2.30428994e-01 4.22452003e-01 7.68095031e-02 0. 0.
      3.84048015e-01 4.22452003e-01 3.84048015e-01 8.23386982e-02
      2.88185000e-01 8.23386982e-02 4.11693007e-01 4.11693007e-01
      4.94031996e-01 4.52863008e-01 3.29355001e-01 8.23386982e-02
      2.18217999e-01 1.74574003e-01 5.23723006e-01 3.05505008e-01
      5.23723006e-01 3.49148989e-01 3.05505008e-01 2.18217999e-01
      1.30931005e-01 3.65599990e-01 8.12444016e-02 2.43733004e-01
      8.12444016e-02 3.24977994e-01 4.06221986e-01 6.49955988e-01
      2.03110993e-01 2.43733004e-01 8.23386982e-02 2.88185000e-01
      8.23386982e-02 4.11693007e-01 4.11693007e-01 4.94031996e-01
      4.52863008e-01 3.29355001e-01 8.23386982e-02 2.61115998e-01
      2.61115998e-01 3.91674995e-01 2.61115998e-01 3.91674995e-01
      4.35194001e-02 5.22233009e-01 3.04636002e-01 3.48154992e-01
      7.18277991e-01 2.39426002e-01 1.99522004e-01 3.99043001e-02
      3.59138995e-01 3.19234997e-01 2.39426002e-01 1.99522004e-01
      2.39426002e-01 2.97939986e-01 1.27688006e-01 1.27688006e-01
      3.40503007e-01 4.25628006e-01 5.53317010e-01 4.25628006e-01
      2.55376995e-01 1.70250997e-01 1.34164006e-01 4.91935015e-01
      2.68328011e-01 2.68328011e-01 3.57771009e-01 3.13050002e-01
      4.47214007e-01 3.13050002e-01 2.68328011e-01 2.97728986e-01
      3.72161001e-01 7.44322985e-02 1.48864999e-01 0. 0. 4.83810008e-01
      4.46594000e-01 5.58242023e-01 2.97939986e-01 1.27688006e-01
      1.27688006e-01 3.40503007e-01 4.25628006e-01 5.53317010e-01
      4.25628006e-01 2.55376995e-01 1.70250997e-01 6.76481009e-01
      3.00657988e-01 1.87912002e-01 3.75823006e-02 0. 1.87912002e-01
      2.25493997e-01 3.00657988e-01 4.88570005e-01 2.97728986e-01
      3.72161001e-01 7.44322985e-02 1.48864999e-01 0. 0. 4.83810008e-01
      4.46594000e-01 5.58242023e-01 2.88675010e-01 2.47436002e-01
      2.47436002e-01 1.64957002e-01 0. 5.36110997e-01 5.36110997e-01
      3.29914004e-01 2.88675010e-01 6.76481009e-01 3.00657988e-01
      1.87912002e-01 3.75823006e-02 0. 1.87912002e-01 2.25493997e-01
      3.00657988e-01 4.88570005e-01 3.66618000e-02 3.29955995e-01
      5.86588025e-01 5.13265014e-01 1.09985001e-01 4.76603001e-01
      1.46647006e-01 1.46647006e-01 0. 2.88675010e-01 2.47436002e-01
      2.47436002e-01 1.64957002e-01 0. 5.36110997e-01 5.36110997e-01
      3.29914004e-01 2.88675010e-01 6.70401990e-01 1.67600006e-01
      1.34079993e-01 1.00560002e-01 0. 0. 1.34079993e-01 6.03361011e-01
      3.35200995e-01 3.66618000e-02 3.29955995e-01 5.86588025e-01
      5.13265014e-01 1.09985001e-01 4.76603001e-01 1.46647006e-01
      1.46647006e-01 0. 7.78216004e-01 1.24514997e-01 0. 0. 0.
      3.11286002e-02 3.42415005e-01 3.11286002e-01 4.04671997e-01
      6.70401990e-01 1.67600006e-01 1.34079993e-01 1.00560002e-01 0. 0.
      1.34079993e-01 6.03361011e-01 3.35200995e-01 1.64309993e-01
      1.31448001e-01 3.28620002e-02 6.57240972e-02 0. 1.97172001e-01
      1.97172001e-01 5.91516972e-01 7.22965002e-01 7.78216004e-01
      1.24514997e-01 0. 0. 0. 3.11286002e-02 3.42415005e-01
      3.11286002e-01 4.04671997e-01 4.26241010e-01 1.93746001e-01
      2.71243989e-01 3.09994012e-01 3.87491994e-02 0. 2.32494995e-01
      3.48742992e-01 6.58737004e-01 1.64309993e-01 1.31448001e-01
      3.28620002e-02 6.57240972e-02 0. 1.97172001e-01 1.97172001e-01
      5.91516972e-01 7.22965002e-01 7.71517009e-02 1.54302999e-01
      1.54302999e-01 6.17213011e-01 3.08607012e-01 5.40062010e-01
      3.85758013e-01 7.71517009e-02 1.54302999e-01 4.26241010e-01
      1.93746001e-01 2.71243989e-01 3.09994012e-01 3.87491994e-02 0.
      2.32494995e-01 3.48742992e-01 6.58737004e-01 3.96203011e-01
      1.76090002e-01 3.52180004e-01 3.08158010e-01 3.96203011e-01
      4.40225005e-01 4.40225005e-01 1.76090002e-01 1.32067993e-01
      7.71517009e-02 1.54302999e-01 1.54302999e-01 6.17213011e-01
      3.08607012e-01 5.40062010e-01 3.85758013e-01 7.71517009e-02
      1.54302999e-01 5.45777023e-01 3.89840990e-01 1.55936003e-01
      1.16952002e-01 2.33904004e-01 1.55936003e-01 6.23745024e-01
      7.79680982e-02 1.94920003e-01 3.96203011e-01 1.76090002e-01
      3.52180004e-01 3.08158010e-01 3.96203011e-01 4.40225005e-01
      4.40225005e-01 1.76090002e-01 1.32067993e-01 1.78174004e-01
      2.67260998e-01 2.67260998e-01 3.56348008e-01 4.00891989e-01
      4.00891989e-01 4.00891989e-01 4.45434988e-01 1.33631006e-01
      5.45777023e-01 3.89840990e-01 1.55936003e-01 1.16952002e-01
      2.33904004e-01 1.55936003e-01 6.23745024e-01 7.79680982e-02
      1.94920003e-01 4.04226005e-01 4.04226005e-01 4.04225998e-02
      8.08451995e-02 8.08451995e-02 3.23381007e-01 2.82958001e-01
      5.25493979e-01 4.44649011e-01 1.78174004e-01 2.67260998e-01
      2.67260998e-01 3.56348008e-01 4.00891989e-01 4.00891989e-01
      4.00891989e-01 4.45434988e-01 1.33631006e-01 2.18009993e-01
      2.61611998e-01 1.30805999e-01 4.79622990e-01 2.18009993e-01
      4.79622990e-01 4.36021000e-01 3.48816991e-01 2.18009993e-01
      4.04226005e-01 4.04226005e-01 4.04225998e-02 8.08451995e-02
      8.08451995e-02 3.23381007e-01 2.82958001e-01 5.25493979e-01
      4.44649011e-01 3.64398986e-01 4.45376992e-01 2.02444002e-01
      1.21466003e-01 0. 1.61954999e-01 3.64398986e-01 5.66842973e-01
      3.64398986e-01 2.18009993e-01 2.61611998e-01 1.30805999e-01
      4.79622990e-01 2.18009993e-01 4.79622990e-01 4.36021000e-01
      3.48816991e-01 2.18009993e-01 2.18009993e-01 3.92419010e-01
      2.18009993e-01 1.30805999e-01 2.61611998e-01 3.05213988e-01
      4.79622990e-01 5.23225009e-01 2.61611998e-01 3.64398986e-01
      4.45376992e-01 2.02444002e-01 1.21466003e-01 0. 1.61954999e-01
